8.121726818316209184e-03,-3.058782068250377045e-03,-2.640858761317278584e-03,-5.364843110780852589e-03,4.327038146623392312e-03,-1.150769348440141421e-02,8.724058821082399801e-03,-3.806034504475514120e-03,1.595195480285492790e-03,-1.246851877387050375e-03,7.310539685224870347e-03,-1.030070354748826959e-02,8.230478319139166972e-04,6.386686222180766549e-04,5.668847211677187359e-03,-5.499456336570154348e-03,-8.621410377521787410e-04,-4.389292089606858759e-03,2.110687335779641539e-04,2.914076068579111393e-03,-5.503095886064606618e-03,5.723618549198070463e-03,4.507953602963977666e-03,2.512471694509341158e-03,4.504279746322058763e-03,-3.418639295871665502e-03,-6.144511275932408936e-04,-4.678847171295344096e-03,-1.339440398130079587e-03,2.651777333690930050e-03,-3.458303758626545509e-03,-1.983767634279886855e-03,-2.196421514866376580e-03,-1.670164788489793880e-03,5.726479403306057418e-03,1.210565137006399880e-02,9.470553272319579691e-03,1.489783040203127712e-02,1.755550472413856117e-02,1.416074179196830617e-02,1.705305548337929591e-02,6.142545111706365635e-03,9.019637478460171276e-03,1.894253632949070495e-02,8.527664175431047197e-03,1.316624275637178106e-02,7.175180051577051410e-03,1.590365313704742226e-02,6.857235127637205212e-03,4.921323747939702377e-03,3.036740209012212498e-03,-2.251578472455325469e-04,-5.712590990110700921e-03,-1.746713612064387453e-03,-1.044471166873890515e-03,2.933115955910988414e-03,4.194917069372524482e-03,4.655510406517786304e-03,2.667612638505665202e-03,1.206464967537574512e-02,-2.199978227168497991e-03,1.436081728467542354e-02,2.143331315178583288e-02,2.019204373323778626e-02,1.595933543953177713e-02,8.904967891283161602e-03,2.118664061078025587e-02,3.032180872394086082e-02,2.413222768434514220e-02,-4.451653357890635390e-03,3.559798444976169061e-03,8.831996247680700546e-03,2.878419735936082590e-03,-5.332622138810098368e-03,-7.249529248691951797e-03,-1.198621757284821371e-02,1.748079666561759386e-03,-1.450643622144970465e-03,-7.160581383442199931e-03,1.484632797914176190e-04,2.388440890934711723e-04,-1.003790344649987216e-03,9.328069549414215109e-04,2.050258236041281688e-03,9.914986006338488093e-04,5.950432290372940827e-04,-2.100257453145946886e-03,1.064622697637835833e-02,9.651368788332803997e-03,2.225364942329964135e-03,1.912667333510205056e-02,2.575752998498416144e-02,1.124256938481671061e-02,2.025532411212476857e-03,2.098593903192481035e-03,4.374125770537356551e-03,8.485365107706978674e-03,6.936279459504439762e-03,2.277018462444439957e-03,5.067140588884434631e-03,-1.107948859540778923e-02,3.129436580907906176e-03,8.269139503097716268e-03,9.690195502875786557e-03,-4.332331368300697261e-03,1.936204690123333660e-03,5.927393506605841897e-03,1.107921378214533469e-03,-1.533336125637752749e-04,8.882931021768056322e-05,-6.865586601233778820e-03,1.575796960211458923e-03,4.230803237925167409e-03,-4.297579704159931908e-03,1.752729893320536863e-03,-1.580603054727267075e-03,-2.753991716947314680e-04,-1.768890368048026823e-02,1.166410974791961923e-02,1.570012391189204784e-02,1.132185456278660823e-02,-1.228176496644747557e-03,1.341407517132787303e-02,9.767020658072233380e-03,-9.748750226679434375e-03,-2.871727574562915608e-03,-2.420017327006762815e-03,-8.844687138217031952e-03,-1.464467951283048713e-02,-1.262202178356488244e-03,-6.541138976772526738e-03,-4.444730720024451555e-03,-1.558262196653663854e-02,2.960730576646975355e-03,2.524397774225767537e-04,-4.480463361879708124e-03,2.875100928228911277e-05,-4.636338358754300837e-03,4.009305159356723464e-03,2.328364921207277049e-04,-9.328488595367438740e-04,-5.087293626457260309e-04,4.344430785029339964e-03,-3.752811742747681929e-03,-8.597973019932179245e-03,-1.588248675867240389e-02,-7.487131575144873735e-03,3.921984379325228233e-03,2.767387232047475247e-05,-3.810430667005319967e-03,-8.046946714331428344e-03,-1.577953558599930542e-02,3.785198968709266917e-03,2.913641303036661537e-03,-6.835384154459682796e-03,-9.608876837276437988e-03,-1.099375433949844119e-02,-1.344394138220450161e-02,-1.399840775134771585e-02,-1.069823219862770132e-02,-1.072697199547955130e-02,-2.016793426755534094e-02,-2.086362629998277790e-02,-2.879304529161553702e-02,-2.417230822617925934e-02,-8.328134457413382402e-03,3.166828700395014993e-03,1.067669506677208910e-03,1.095349864484866653e-02,-9.481804614455462132e-03,1.029395453873342518e-02,7.090158448390056038e-03,8.823355936823075452e-03,-8.753959113512696164e-03,-9.603902695173863885e-03,-1.338671383105802942e-02,3.428881508190313124e-03,-4.146768961136776399e-03,1.243037520611085063e-03,-2.377732440690700534e-03,-5.248266833167014242e-03,-1.577737689777714393e-03,8.615808830433865147e-05,2.455018545641843991e-03,1.125623422455313211e-03,-3.035740096499749152e-04,1.016390045455927045e-03,1.528218752390527509e-03,-6.399679735606259197e-03,-1.373615201981016366e-02,-1.696354455390699720e-02,-3.397328862895775820e-02,-2.551177130721087039e-02,-6.928635359742190726e-03,1.974335696082787136e-03,-1.066002206048481497e-02,3.112575575630507040e-03,7.599516436547461111e-03,2.017208101276444371e-02,8.899725895214002577e-03,-9.727169635003667190e-04,2.010088606795327679e-03,-3.448600037747567241e-03,1.629302424643503874e-02,-6.993336338335558525e-03,-8.797888744064353769e-03,-7.936355864292860343e-03,-2.777489903455217062e-03,-5.090102857523470629e-03,1.000946921576941102e-02,1.580129665601885018e-03,-5.726203967469565420e-03,5.468034537767441777e-03,3.238720202384556108e-04,-7.131266596824515844e-03,1.791571327985018696e-04,-7.908644276874817608e-03,-1.419335507410922348e-02,-8.200951889178378224e-03,-1.746282554036075046e-02,-1.814215506221702329e-02,-1.516468779731886159e-02,5.440411566098224752e-03,-1.986047615424077484e-03,-5.713676869178571996e-03,2.289354813355926055e-02,2.138036950575721278e-03,2.625739651011938566e-03,3.997905997740887687e-03,-3.571682786061954935e-05,6.333447586663198785e-03,8.722286894970673193e-03,4.905160347975515145e-03,9.345420454109030009e-03,3.261390968405024869e-03,-2.461603806146060204e-03,2.070414477751518896e-05,5.783775879948866491e-04,-5.784629141891818073e-03,-4.866432655643837253e-04,-1.347191767663324415e-02,-7.438000781091665473e-03,-4.542093496039340331e-03,-1.507157370382126646e-02,-1.450716690120143655e-02,-7.526289447076749128e-03,-4.024501475678900556e-03,-9.598482895501359025e-03,6.124794990320481898e-04,-2.004056638472715215e-02,-3.935788107357431932e-03,-1.154198715677347406e-03,-8.438464343767413528e-03,2.268509201444319015e-02,7.380030101199740525e-03,-1.791075945029886205e-03,1.717346257226214784e-02,4.479903274214410216e-03,4.044337467432232089e-03,4.871752943052744429e-03,5.104196005695701803e-03,-1.341050026664747114e-03,8.697374690440370579e-03,2.299038085910606530e-03,4.115274424528920193e-03,6.916415399959256229e-03,5.171602974701428913e-03,-6.551393549509221086e-03,-1.584932466299638493e-02,-1.402365260238904419e-02,-3.109757868774783336e-03,-1.058788349705633292e-02,-1.028637001317155540e-02,1.811926244501502106e-03,-6.252895590007084489e-03,-1.273636118133003679e-03,-8.119443107047048802e-03,-7.814230451750649176e-03,2.854076639718219140e-04,6.999219712404929419e-03,2.126004253454743653e-03,1.501087864805254225e-02,8.289040018482560224e-03,6.404929124409128142e-03,3.488768906055887166e-03,-4.425331564510648851e-04,3.321720866906957038e-03,9.910187747126505617e-03,3.284004642370236520e-03,1.370354410741162973e-02,1.251510494657775280e-02,1.218355383403560768e-02,7.084949987375745509e-03,-6.185099659463523178e-03,-6.862226782437783751e-03,-1.235488828615501425e-02,-1.227433897824519934e-02,-7.089156986886479758e-03,-1.209748982138374000e-02,-7.186311702356102879e-03,1.124858859428885111e-03,-9.760773318538121593e-03,1.812358927879219881e-03,2.270296162261262792e-03,-7.137577588995627428e-03,-8.347799974722756866e-03,7.615998713870679275e-03,-3.473467976436131650e-03,1.022748520094011494e-02,1.545959404045790797e-02,1.457042943686795433e-02,3.615688847472449570e-03,1.289825463467188064e-02,2.094262311788146029e-03,1.794933290549119431e-02,9.513475560091435440e-03,1.104888992277666855e-02,9.450956751758851290e-03,9.988275083950812899e-03,6.109620956250102174e-03,1.746227638626608996e-03,-8.838332731088159588e-03,-7.440077587299229883e-03,-1.085220085412409372e-02,-2.986553233252104127e-03,1.414836186449146315e-03,9.244524767825207769e-04,7.966922606590558578e-03,-2.270492662397463959e-03,6.523583741408611920e-03,8.554809044464168483e-03,4.336385383789300579e-03,-1.214061164704459579e-02,-1.048106564069916855e-02,1.153389308376825614e-02,-2.757810518285353299e-03,-4.103994082300318168e-03,1.051473447856019795e-02,-1.891716065841340076e-03,-6.044637988447384980e-03,2.138857358825860602e-03,7.402629696560704062e-03,-6.310641361410009205e-03,4.100176710427647780e-03,7.618721984090132474e-03,2.365242559802179043e-03,4.553595965794189106e-03,-2.884958765707408036e-03,-6.946438524460913158e-03,-1.713915015323210639e-02,-4.532269364742950481e-03,-1.608598236009544085e-03,-2.942751758753973240e-03,3.958968564673336944e-03,1.669583880857515600e-04,9.438598412076709481e-05,-8.703711623118479818e-04,7.709245318379571174e-04,2.845594463177384802e-03,2.188213266526939892e-03,-3.172922826347609592e-03,5.467760232270666571e-03,-7.333960430588174102e-03,5.925823989109235690e-03,-1.182184759064933491e-03,2.087382029539845002e-02,1.225449418223436594e-02,-7.466106596502793472e-03,1.020498310009749360e-02,2.968579739217401536e-03,-1.448107892680450736e-03,-4.265296131524725157e-03,6.504922516278648092e-03,-1.393489419018870959e-03,9.267140343043460057e-03,-3.459000457946693856e-03,-1.448825409079194503e-03,-1.100970327587956141e-02,-1.497696129767839279e-02,-3.824213505689644590e-03,-3.066123785105728718e-03,-3.171396344515682413e-03,-4.732493771588009573e-03,-1.400661123407008664e-03,1.032665207414979261e-02,4.632405282514811054e-03,2.861466568238627602e-03,2.580648163323896564e-03,-6.117169225743696731e-03,-8.975919127630741651e-03,-6.573840388921412502e-03,1.369511554817953898e-02,-3.612031447655913129e-03,1.289134782859214200e-02,1.111063843483145290e-02,6.325379918114993651e-03,-1.150961128940541575e-02,5.302005071599841766e-03,-5.786598386411157847e-03,3.440097992278825980e-03,-2.731836923772846919e-03,1.782686856290205965e-03,2.782946368071443667e-03,-1.887577735962168686e-03,-1.530654636645067436e-02,-9.133839189117875373e-03,-1.787115259693451003e-02,-1.439355808369309486e-02,-9.117962950965254748e-03,2.475497187198196294e-03,2.723046175957906465e-03,1.263774828453344094e-02,1.053861792224358544e-02,5.973125821818153595e-03,-2.766422612149300152e-03,7.208196944279593801e-03,-2.421387984639393129e-03,2.974253668128693483e-03,-1.417678933025854943e-04,-6.375172233232909678e-03,1.790153644935255431e-03,7.686305882538626427e-03,4.604591096148232497e-03,-6.119477081822513077e-03,-6.276909298850198715e-04,2.693549050486008980e-03,-6.619713535659662402e-04,-3.788787992568772457e-03,-2.928120152619179215e-03,-5.064459823149310917e-05,6.596768550449115358e-03,-8.729207558261910336e-04,-9.847814903918304663e-03,-1.368552985445899497e-02,-1.280084361032237219e-03,-1.010897679010602269e-02,-5.089219853196927899e-03,7.057146519342487670e-03,4.674856256802589413e-03,1.042208316755485926e-02,6.513037083006724057e-03,-1.338490284070915784e-03,4.279801154403299786e-03,1.156857637650650882e-02,-8.363257983118393361e-04,2.919490312115942312e-03,-1.315418613299587126e-02,2.609208921963059296e-03,3.320667511747147499e-03,7.290541193047599816e-03,2.264266871760135455e-03,3.384556488551071496e-03,2.948835669438221348e-03,3.272416397672597756e-03,1.052782756371669313e-02,-9.792689965230502117e-04,-8.649272922892883159e-03,-3.484456175114572507e-03,-8.707862266666243148e-03,-1.321841432491588191e-02,-1.945765518735557975e-02,-1.938303785823370165e-02,3.995615632081037625e-06,-4.661725942519594841e-04,-3.002703800360798266e-03,6.876243047091936018e-03,4.815535927338736311e-03,9.277532228883778043e-03,7.742920391719462780e-03,2.576996277597988234e-03,7.138600929000209379e-03,-1.801334057172843854e-03,1.913879466002732553e-03,8.152525856490873760e-03,-1.195434634906665690e-02,1.796042462374191099e-03,-9.760526436226163102e-03,-5.847076905194416481e-03,6.046740948398333926e-03,-1.564691892261680555e-03,6.258007216775467695e-03,1.985216546087295326e-03,1.430611517440104248e-05,-4.336322737782914174e-04,-1.184700277233740207e-03,-7.200737451389766300e-03,-2.613270848233683816e-03,-3.787207539189919609e-03,-1.412969804329967938e-02,-1.628780726431366260e-02,2.963060745148964233e-03,9.723468435367558713e-03,3.510097533096897138e-03,1.411876496323825891e-02,3.233882196529134535e-03,-3.699532353265016799e-03,6.132530016622574597e-03,-1.177326236478804487e-02,-5.501519482539947090e-03,-1.125087569855629487e-02,-1.027591914270697959e-02,4.537421119487456203e-03,-9.057822117825655578e-03,3.932354466564666993e-03,-1.294914267002661825e-03,1.822195486967757112e-03,2.773863812746521669e-03,4.042588805743404894e-03,2.710116161290862654e-04,2.795944568064967755e-03,1.417393225125135672e-02,5.364245669257337173e-03,-3.972560385968087657e-04,-6.825195201150880721e-03,2.149691553469583547e-03,-1.368081710977067829e-02,-2.011236442267827843e-02,-3.491453591104112537e-04,1.565401872480339657e-02,1.640224556948699508e-02,1.171114711841246894e-02,7.693834490565256042e-03,1.177318741444700022e-02,1.308516166468065046e-02,6.696807657110954992e-03,2.129399338630117138e-03,2.981902989013537116e-03,-1.929847926567821587e-02,-8.732531580465203655e-03,1.136781737782725614e-02,-2.697473469297914043e-03,-6.658930240684685260e-03,-1.258371038157122092e-03,6.436722260656563797e-03,-2.513894168327293534e-03,-4.536881840340401852e-03,2.771059553540457590e-03,-8.364586677994490654e-03,-1.087419722420497961e-02,-4.395746602046855800e-03,-2.435032944198786166e-03,-8.147248470935451389e-03,-1.764495716701264261e-02,-5.279124274700428259e-04,-1.515469196944062638e-02,-3.734367556465164359e-04,1.378400810263341082e-02,1.631673047996544737e-02,7.036296615587977338e-03,5.168512286876894742e-03,5.453254450485529349e-03,-1.429070242948232879e-03,2.677715447094072485e-03,-1.503501359775084867e-02,-1.738351121786011616e-02,-8.272109848182478825e-03,-3.333291532303988159e-03,4.332225174871489129e-03,-1.407850210521345742e-02,1.845952347734368740e-03,4.266410929118665679e-03,5.000080649799665093e-03,2.750419017073546610e-03,-5.698113499929579814e-03,-1.571019997758379277e-02,1.361872846468752639e-02,-3.313606639073695195e-03,-1.059485081370082835e-02,-1.207664635658981835e-02,-1.162065807064784073e-02,-1.220410582628043798e-02,-6.612503201030324809e-03,-6.201328893658531599e-03,1.514347710115105175e-02,1.458193283675129903e-02,1.143129499845524019e-02,3.971950615737228699e-03,7.532718155043253289e-03,3.353896685967911687e-03,3.158828495946311172e-03,-1.710322376334672640e-04,-1.435369110819753602e-02,-2.194377614590857506e-02,-6.485898414989308899e-03,2.085154440843897325e-02,3.394080962088995550e-03,1.236252704443849574e-03,-3.875351435367174139e-03,7.082026883290258373e-04,-1.326793592943624478e-02,-1.196477728023078932e-04,-5.796184416803068853e-03,-5.027947310679775801e-03,2.139318400345594645e-03,-7.212751690270905423e-03,-2.722363646492685987e-03,-1.077009079666044200e-02,-9.876650014937407920e-03,-9.498295774370564548e-03,-5.827840853751756721e-03,-1.266903206543170714e-02,7.670030159478177616e-03,1.097238466749770290e-02,7.105228884177504541e-03,1.997305246709815880e-04,4.769726135285199883e-03,4.108872033715326930e-03,-2.128975348679994998e-03,-5.433126487386062860e-03,4.648542580117490802e-03,-6.045642641601783364e-03,-2.805329778111184495e-03,1.440840183896257079e-02,8.374488292792883065e-03,-1.219202240128730401e-02,-4.577121841158530817e-03,6.125779246366154507e-03,-5.267730368501575590e-03,4.545593707330802986e-03,-5.760223703147991300e-03,-2.850128923075898220e-03,-1.474619544309572865e-02,-1.613499518565734417e-03,-1.625623503812728340e-02,-1.341501986308031753e-02,-8.742709396087441909e-03,-6.975348494974301268e-03,-1.683474757610456743e-02,-1.395141460556164953e-03,-4.049740311850207573e-03,6.315346472182603241e-03,1.319050206855942181e-02,7.277770404740412438e-03,9.668786474120517546e-03,8.385145188318128551e-03,9.424594027534051108e-03,3.141894620579331956e-03,3.156090113519781967e-03,-4.776723700531549516e-03,-1.237738032530995638e-03,1.729761196001813189e-02,7.766958900443394348e-03,-6.511023579955567409e-03,4.193173736141886723e-03,-5.195911610174515187e-03,3.665116158595391974e-03,-9.029487958852645824e-03,-4.532538942086399361e-03,-5.850933941772726646e-03,-5.392518876564477912e-03,9.147244925480875000e-04,-1.010376358915232066e-02,-7.289348218373552929e-03,-6.442417065251006617e-03,-1.767042105151564457e-02,-2.009651187486544491e-02,-5.772441924157887920e-03,-6.939575749872329939e-03,-2.596856611478377732e-03,-1.639567155408742927e-03,4.038542748987017372e-03,-4.701344928307911973e-03,5.638825706699110776e-03,1.942831363240342868e-03,9.822192120655662967e-03,2.312437656487282102e-04,6.606613429788517171e-03,1.208774023017068766e-02,3.898001878403198166e-03,3.422002475270757155e-03,-1.222458073809012773e-02,4.486455872232556017e-04,2.051328726984222219e-03,4.299354858984560587e-03,5.929870514711979047e-03,9.760198482760750957e-03,4.389087572587422638e-03,-4.085958321430902614e-04,-1.065381666162990015e-03,5.548929540045202322e-03,2.226676830760744834e-03,-5.375383173513095456e-03,-9.198344994121794224e-03,3.836049621969382477e-03,-9.130086835254767625e-04,-1.204418247322169844e-02,-1.120574914976144867e-04,5.420333411621790741e-03,6.086915870437852906e-03,5.229011415562092972e-03,-1.192127759033774275e-03,8.880604550368518396e-03,1.053217056340102244e-02,8.907311776434561831e-03,6.747643995869850343e-03,1.074028866906122197e-02,1.471368159410903383e-02,6.607772250097565525e-03,-5.905515863859115387e-03,-2.299650522172906348e-03,-3.953999768875838573e-03,6.118611059800545954e-03,-8.648061108296663810e-04,9.628382228151726244e-03,6.528879867887494963e-03,-3.493180162507684094e-04,-1.027054958968774342e-02,7.968231874273812299e-03,5.217383436108182469e-03,-1.545634671612241455e-03,-1.257561009873759067e-03,-8.038821620360970741e-03,4.100285018102054098e-03,-7.452789295469293808e-04,2.643333962719334254e-03,3.116314338164598123e-03,3.949705709418433255e-03,1.103671722049046067e-02,1.800445203139757963e-03,6.757947061189420110e-03,-8.363769116648520768e-03,1.352440141803620821e-02,-1.977188505552944942e-03,1.884964504273157994e-03,2.864824052002092059e-03,-4.141187382963738470e-04,5.401540865617266915e-04,1.470880948538282138e-04,-6.739656464786181449e-04,5.246091453762839404e-03,4.831104312891707463e-03,3.629584262604105931e-03,2.154771271997328250e-02,-3.908567906521507977e-03,4.822290391312713913e-04,9.113519268302856108e-03,2.376110228337577693e-02,9.690641559788142761e-03,-9.075085316646235370e-03,4.812032662728202119e-03,1.302551049577519706e-03,5.937717375691102702e-03,-5.554002691802856911e-03,-5.022776542984407067e-03,-1.956527052750473374e-04,7.356578823276282986e-03,1.176408180166515702e-02,9.925470383869750696e-03,3.250339205815134559e-03,7.095636832076861406e-04,6.896193354466974984e-03,-3.122072491594174697e-03,7.790135449069045953e-03,-2.194988318331387873e-03,2.950197320804150928e-03,-3.396918914986171972e-03,-4.754546255253848559e-03,-3.521751657617294001e-03,-2.293334303488373709e-04,-1.093667294838545712e-03,1.253702518528667861e-02,3.572419324001392844e-03,9.741007867433013750e-03,2.810366270143587961e-02,2.290579845781788582e-02,2.038357357976470011e-02,2.133707098277709546e-02,1.099253543210041394e-02,1.856240663325448058e-03,1.148267391281801615e-02,1.427510008161176833e-02,6.514561909352486850e-03,5.543703490084429288e-03,4.903156401491292997e-03,1.194945204477921089e-02,4.922203259147136904e-03,3.266872016763908496e-03,4.849336456618140966e-03,1.060509188487931270e-02,-6.002845791952137258e-03,3.389037855599057441e-03,-5.532865336959426165e-03,-1.796120478553694076e-03,2.526909513764588090e-03
6.089704504006736990e-03,-9.703404821824466661e-03,-4.030891059767284859e-03,2.453084618655140586e-04,-2.980431672938310076e-03,4.308115506706019539e-03,-1.043195282728263083e-02,1.809008202855234533e-03,2.129600882514080199e-03,2.454019857081523801e-04,5.511183662926711149e-03,-6.147871267732144679e-03,7.702576620500368142e-03,-1.124022971218866657e-02,-1.425459745908715797e-02,-1.644732739186509363e-02,4.071715645744627098e-03,3.902349648791872058e-03,-7.320267867902958796e-03,-7.724559690526429422e-04,-4.621615927079306910e-04,-1.189376327284162463e-03,-3.778313825509825585e-03,9.257189472867547939e-03,1.045483382877605101e-03,7.775079971665444130e-03,-2.845743267559852283e-03,-5.308983806554240688e-03,6.612388945989231253e-04,-2.816183020587283061e-03,1.195072981166755803e-02,1.227114245945598158e-03,7.044477396911221281e-03,4.815651922912331413e-03,-3.051560993929782264e-02,-1.854265029534315351e-02,3.190197192931921392e-03,2.883881249148404977e-02,7.821208621948667547e-03,5.718831940393633365e-03,2.373564863310556605e-02,5.020461791788238641e-03,-7.746773382638580743e-03,-3.215627719722548294e-02,-5.540388457906157693e-02,-3.321479452362192421e-03,3.257912689363437475e-02,9.435195749249168304e-03,7.046387958079430337e-03,7.414402858754221871e-03,-1.159627420433890707e-02,-1.863013592558664805e-02,-2.191001336693343057e-03,9.276781048327770391e-04,1.972140150060562765e-03,3.627612791267794019e-03,7.479423829422377802e-03,3.377269046021059810e-03,-2.139262132834474431e-02,-9.338178957795822618e-03,-2.112332866478478302e-02,4.457838492261961133e-02,1.107046329168080582e-03,-2.467867498427583905e-02,2.091576219077891617e-03,-1.744357264854793158e-02,-1.487395578087974228e-02,-1.968091216893375420e-02,-1.684363253215247908e-02,4.532355919457093860e-03,-1.125289087494702779e-02,-1.221888124404026457e-02,-2.750716204393061776e-02,-2.356805870857280050e-02,-2.477871547002033145e-02,2.336507973754257603e-02,-1.493765969669951475e-02,-1.123944165060550282e-02,-6.639302980790097279e-03,-7.209862505877055738e-02,-5.060445358719366932e-02,-3.068472287759910211e-02,1.328212012571425510e-03,-1.302330294326899205e-03,2.225483551722859995e-03,4.905612311099561860e-04,7.587518409882412426e-03,-8.534684567477843209e-03,4.048217655001430659e-02,-1.298299059372910735e-02,-2.600313158199413222e-02,-1.911035427928080288e-02,-1.436994447813800917e-02,-3.949264083995705776e-02,-1.624239391908516641e-02,-2.351167688395189651e-02,-3.750481021750956545e-02,-2.476030530557702877e-02,-8.793725859062486577e-03,-6.230434657292298036e-04,-1.485109733175029971e-02,-1.378028544866989960e-02,1.836042480187066945e-03,1.932298899580378766e-03,-1.812135828572668944e-02,-1.091508340279625719e-02,1.290353942805508650e-02,3.910831714322318339e-03,-5.294112565983342261e-02,-6.380647364107555619e-02,-2.569950782445296761e-02,2.892322101281210103e-03,-4.806317995152549830e-03,-2.256435243444430971e-02,-4.367548006446247901e-04,-3.935869708575674003e-02,3.545486516142769620e-03,7.279224119946865745e-03,-7.184451511384047639e-03,-4.496007557160648996e-03,-1.722558294211680441e-02,-1.448728711679215034e-02,-7.494545658757936248e-03,-8.855223761968965962e-03,1.216910105881510544e-02,6.559859548033181685e-03,5.086771575878097293e-03,6.557015122494866052e-03,4.451963423282589722e-04,1.219138550687398799e-02,2.491581509549835576e-03,1.091031350021916951e-02,4.836401355480302033e-03,2.536045378885625617e-02,1.562046604351485096e-02,3.319402456342086805e-02,4.275924023710517274e-02,-1.920228094400901198e-02,4.101435663357720814e-03,-1.904895491085116868e-02,-4.463233367564420351e-03,-8.059915977061868873e-04,-3.058128690564358362e-02,-7.479073459066945193e-03,-1.482955875969087060e-02,-3.688996479309618326e-02,-8.477971193832910604e-03,-9.503698271634849690e-03,-1.155186044008339741e-02,3.879871264956227437e-04,2.767320253553137883e-03,-1.122531240017947754e-03,1.250572571384736022e-02,-1.027115755311125379e-03,1.749495625845122818e-02,4.258557545164578031e-03,1.119652620673701471e-02,2.470592591540344066e-02,1.934267709253669615e-02,2.321795176538551247e-02,3.416285863405540968e-02,2.353493208063420217e-02,1.912685079836200924e-02,2.245820108628870243e-02,3.010722080930142153e-02,1.052895697384133127e-02,-6.390509978273960050e-03,2.401528729760320224e-02,2.174991621314205630e-03,-1.207322766829601983e-02,-3.149574171776100325e-03,-5.731408050934836546e-02,7.449935434453360851e-03,1.974139584111805207e-02,-1.385686893349134113e-02,1.036586843277892585e-02,4.957283527848568502e-03,-6.389032449755049393e-03,-1.663032500619726628e-02,-1.684022990097722161e-02,-1.076687813639140741e-02,-2.230517784524186937e-03,-2.721327897334074181e-03,2.767008208732936805e-03,-7.613883454295449459e-03,8.345124388768593695e-04,-1.885877773509347715e-03,1.435135277229780681e-02,1.105519987287310532e-02,1.914462805639871893e-03,9.536424999231024255e-03,3.490195542950685903e-02,4.205382310805369506e-02,4.696150533698709162e-02,3.115784867502049971e-02,-2.442248841963116923e-02,2.901650563016146701e-03,-5.527531422987850412e-02,-2.490317955536712133e-02,-1.899714979592870626e-02,-1.221007778716882118e-02,8.526156685333196456e-03,-2.056671889317717231e-02,-4.052575880905364379e-03,-3.750619087945818771e-03,-3.966581243626832523e-03,2.714790804641253278e-03,-1.155424952111751150e-03,-1.314944841669029099e-02,-1.004199682442816037e-02,-5.457426850326367943e-03,-5.335905158811189188e-03,4.524347436458514039e-03,9.463014271482219145e-03,8.487230269971760346e-03,3.695053463567443339e-03,8.221660572384244595e-03,1.202673694799552724e-02,1.025234698122067835e-02,2.514410136345954574e-02,1.954162346626785521e-02,3.944237696804971105e-02,1.761642706503526931e-02,6.555511735105485141e-03,3.041417622421273975e-02,-5.568677054105329594e-02,-1.693505446367345743e-03,3.585064979381422101e-03,-8.047172262996327846e-03,9.017907375594677241e-03,1.395404190249127695e-03,-4.675664185308388808e-03,5.999048092801666406e-03,6.658411697026557496e-03,-6.172495565835924188e-03,-9.097120639556737854e-04,-6.382224966600421809e-03,-6.484683857437500108e-04,-1.302329126732551870e-02,-1.674553925102675173e-02,-1.124715900127406078e-03,-3.744625086919377418e-04,-6.162167494763113804e-03,4.143918730280186924e-03,2.146348816774823302e-03,1.536932588910235563e-02,-9.814652381603625533e-03,7.398994590817799949e-03,4.477258587767048159e-02,5.136491761446917992e-02,9.402806711291771674e-03,-3.160163620663436132e-03,6.294072602228230340e-03,-3.676016876831714880e-02,-1.215677910741141954e-02,-6.966536381109505668e-03,-2.068237846028628604e-02,-1.803532498315599947e-02,2.846913222503265773e-04,1.449830180085374173e-03,-6.877019488441427769e-03,-5.008590393628005455e-03,-5.915479980064661768e-03,8.400937659151848369e-03,4.035150349146658134e-03,-4.157096787651466500e-03,-3.221667655850443679e-02,-3.644749537048713045e-02,-2.189260991724916589e-02,-2.173705267800530184e-03,4.128220017956397807e-03,9.934992877501625311e-03,8.967566507459664299e-03,1.500831312833957043e-02,-4.100025714830447636e-03,7.374639507938205926e-03,3.339667969918503482e-02,1.929329808970171867e-02,7.005193887345604817e-03,-7.828865840507556739e-03,-9.843063914262661224e-03,-1.291686067625995304e-02,-4.056209665425588445e-02,-3.648175980304457777e-02,4.347036215459422525e-04,-1.637119064234046975e-02,-1.819757337439384046e-02,7.461102541301356007e-03,4.761519479893461422e-03,1.086208646086682904e-02,1.754168522759080862e-02,4.792190723584170003e-03,1.751006162699818638e-02,-1.600688608884748287e-02,-5.056668804295680331e-02,-4.182525889362570526e-02,-2.966379038562436121e-02,-6.589701421676719476e-03,-8.629322713696950531e-03,-2.737087353940467239e-03,-3.513711096861819871e-03,-5.667413223343873395e-03,-1.933112840365644762e-03,-8.776028725682679700e-04,4.565871129894134156e-02,2.252987421498342177e-02,2.689509645314275971e-02,-2.667636394749134388e-02,-4.014616131432093005e-03,2.393671543036095944e-02,-2.521266554265496132e-02,-3.833552859770628096e-02,-1.846217657055821207e-02,7.017229078247612210e-03,2.438465781693227846e-04,1.632688197244410236e-03,2.984284186576458518e-03,9.789394397535386427e-03,5.866113922955792578e-03,8.783389724189157380e-03,1.318753822011922011e-02,-4.727029206389967396e-03,-3.436065606319860244e-02,-4.444821678847815649e-02,-1.844659822290276724e-02,-6.042865413175222897e-03,-1.985655963893000892e-02,-1.144785416823016801e-02,-1.760399485027024438e-02,-6.916974183482442126e-03,-7.448118507124032971e-03,2.621806950836728933e-02,9.109318654313943234e-03,2.522578949308442592e-02,2.174034691387969481e-03,3.107134251333976138e-02,-5.284451909392481363e-03,1.342449711576540819e-02,-1.992320549888989753e-02,-3.892286984061058691e-02,-3.302751338494622907e-02,-1.159041309038303345e-02,-9.627575292659563229e-04,6.865764660648540109e-03,-3.143379803014241004e-03,-1.611487481552938790e-03,5.430932254183140975e-03,2.800911052215739744e-02,3.973505494193595861e-02,3.147650554874034667e-02,-9.888047240094424012e-03,-1.658959265848817394e-02,1.883121830425950197e-04,6.736972532552078317e-04,-7.994380000652766619e-03,-7.743393275030407627e-03,4.338415682437789418e-03,1.082581212557314279e-02,1.235284117807866622e-02,3.333945337687138633e-02,7.860923787732161314e-03,-3.098472897958154393e-02,-2.174395305440483817e-02,-1.888467723738957924e-02,-4.140737945941369742e-03,1.578609592944851814e-02,7.332517414650593576e-03,-2.817451317277417169e-02,-2.104666282717531939e-03,-3.751467744839543424e-03,-5.327441233702830126e-03,2.390455505383116963e-02,8.367507645414365772e-03,1.203691806041995438e-02,1.451191770334961731e-02,2.303980285169786660e-02,3.690599180114537831e-02,3.077955008800804804e-02,2.186482816833176628e-03,1.365123890522109210e-02,2.518733108108723358e-03,4.688770105955682686e-03,2.370489524058450644e-03,7.275050684024322346e-03,1.939664551114056532e-04,1.511161666763597040e-02,2.407793595915096174e-02,2.815491821443250400e-02,-1.721663721840195269e-02,-4.684730901943141151e-02,-6.056563143257405468e-02,-3.838608893698675084e-02,1.935131556466764685e-02,-4.621231348817613632e-03,-9.880542772886235017e-03,1.065909268921715926e-03,-5.132798127751218506e-03,2.880319744513711207e-03,7.120286879850862283e-03,1.577465667661435630e-02,9.682629650147394143e-03,8.814126254361150450e-03,1.318939033959429068e-02,2.801986339403060577e-02,3.911045404636964706e-02,3.029825622572043103e-02,1.196814509086511005e-02,1.764422082354665314e-02,1.229634523796833273e-02,1.164106711155921646e-02,-4.416130218085924201e-03,3.023294589590382313e-03,-5.188430012331324281e-03,-1.796013297315059154e-02,6.040787980807372538e-03,-1.715608967984382643e-02,4.596684879982081313e-03,-2.096091940785898416e-02,-5.780194202602748771e-02,-4.115458624229018786e-02,2.555826532799961460e-03,3.728990550298441967e-03,1.715878045409829217e-02,-2.044135861610625257e-02,-1.713009260067364925e-02,-4.147114991937850791e-03,8.554385872880414937e-03,1.900487300666710982e-02,1.825425987061083527e-02,1.215464116262824495e-02,1.455195121200504073e-02,2.198469478034946120e-02,3.751549971351221535e-02,2.122249817091237389e-02,1.812055252906618133e-02,1.064537909734458374e-02,1.198733408838082576e-02,1.068523297676349584e-02,-6.949373153790953071e-03,-1.344522436886033331e-02,-2.241600136068594429e-02,-1.893963174656678253e-02,-1.416443805581965761e-02,1.351726654191886742e-02,-2.068695702170375225e-02,-2.277411785022949767e-04,-5.574129023515882186e-02,-4.843966639251914147e-02,-1.411355297057242594e-02,-2.807814301129780629e-02,-3.959832858635944398e-03,-3.759467242539080156e-02,-3.828573517530601406e-02,-2.618203520891757181e-03,1.015694318560302067e-02,3.078807116391266661e-03,1.955737269596593414e-02,7.368833838465131507e-03,1.279298298681529229e-02,2.107138038221972876e-02,2.983986037307473360e-02,1.236875911440763094e-02,1.481866540352103252e-02,2.163382734644334754e-02,1.385907567257384926e-02,-2.918796984976831845e-03,-7.135419961965859884e-03,-7.711790949464476276e-03,-1.153478549423836430e-02,-9.353568222654831676e-03,-2.240802893680031091e-02,-1.406386897881072538e-02,-2.188060227180058798e-02,-3.731135640142333593e-02,-5.960651360541755622e-02,-7.478110603984899907e-02,-1.452725137770709541e-05,-2.883266365852699131e-02,-9.506006495301312989e-03,-3.456623836662034432e-02,-4.811749145156642496e-03,-3.247713417991333548e-03,1.172652282395200175e-02,-2.571359062381861345e-04,1.172831966368939778e-02,1.976163462290386405e-02,2.928596928801286553e-02,2.860356217212751614e-02,1.378272776443779414e-02,3.369390805373101861e-03,9.913072234847483677e-03,6.008710258936572277e-03,2.110398635733996830e-02,8.326329400551533283e-03,5.316062150410786127e-03,-1.619259116802479123e-02,-6.524747682583656276e-03,-1.090858683329055251e-02,-2.411607786407102619e-02,-3.780246553176809521e-02,-2.884781916205099092e-02,-4.691270160707231712e-02,-7.259154100189332826e-02,-7.967634525377960408e-02,-2.524837003173266078e-02,-3.434679849687218012e-02,-2.048182844902427316e-02,-2.592720551540152879e-02,-4.197791130932534975e-03,-3.209539810962072637e-03,3.568919470261182683e-03,5.237560515554667145e-03,5.266692596438171323e-03,2.460593163283320353e-02,2.043808957631737880e-02,5.515737013689205742e-03,1.531008505622159441e-02,-1.974117804311154196e-03,3.150759938161504584e-03,-1.750439253389734877e-03,5.724387482109970920e-03,-2.529754710474525726e-04,-1.292125900079024552e-02,6.761629254812172513e-05,-1.032486633651017501e-03,-1.175444325229657236e-02,-2.570397679622497128e-02,-6.851944522059024052e-03,-1.701418361679465224e-02,-3.873497178322232032e-02,-8.029843107144064851e-02,-3.600922660573092904e-02,2.115348370347656590e-02,-2.649716213059434555e-02,-3.888161021156185532e-02,-4.055714312093948448e-02,-4.715672366794733221e-03,-1.714825783554222924e-03,9.724580249830911630e-04,7.512509559630959743e-04,1.077861435256658416e-02,1.576082320970008388e-02,1.602593547030082763e-02,1.762765173586467934e-02,-9.314748247712442003e-03,-1.908151397818218242e-02,3.151497582404292827e-03,1.470668312802865876e-02,1.376303176788843709e-02,8.981634773755580933e-03,8.647920574355904763e-03,2.886155172711555184e-03,-3.717437669682378647e-03,-8.876896663659719633e-03,-2.263735573317384592e-02,-7.573041791750119434e-03,-1.116759718980395340e-02,-1.709570268054109998e-02,-5.489844162123030252e-02,-2.580358347220028815e-03,-4.219557439689014880e-03,-2.885580113927756554e-02,-1.562314953511602378e-02,-5.744418244821108271e-02,-3.024026696575292383e-02,-1.777840961567283412e-02,-1.543907765330538619e-02,-8.678590823027840240e-03,-1.417337247859564581e-02,8.974829225472474165e-03,5.886023414866737961e-03,1.386945931926144605e-02,1.046351220266376891e-02,5.661820158164260035e-03,1.129116614184441907e-03,2.250020275196696479e-02,1.493466395318881167e-02,2.456747062776804685e-02,1.768558834975395011e-02,1.704426765209698545e-03,-1.579489556377844037e-02,6.686551904651454872e-04,-8.254823375803346450e-03,3.823458449214583131e-03,-3.224322542660880420e-02,-3.971542601002708318e-03,-3.115896940487359462e-02,2.165823709393304916e-02,3.424312905132236018e-02,-1.696090871289319263e-02,-2.380961166338479984e-02,-4.836899345472005923e-02,-1.917837217482999679e-02,-7.306566055991731666e-03,-2.812359862966161417e-02,-1.234012612209108191e-02,6.533495154702416950e-03,1.514980259549127302e-02,6.106296759079633124e-03,2.170034014533829894e-02,1.562615407300762052e-02,1.140302377692755352e-02,1.339899673022808442e-02,1.989300367624997901e-02,-7.922501149613007942e-03,1.946146823639268233e-02,9.098048601071194029e-05,-2.772858302118246226e-03,1.153543618065558211e-02,6.414962127448181964e-03,2.085964050732845229e-02,-2.255611429957848652e-03,-1.848036790961867133e-03,-1.867690759943258644e-02,-8.920667441170126652e-03,5.041966158810090234e-03,3.155951541683861550e-02,3.569968342823403445e-02,-6.821559217190259483e-02,-3.837962711531123228e-02,5.781190526634530542e-03,-1.258589599355562465e-02,-8.013254640011303540e-03,-4.873934509879163102e-03,-1.581301945189989011e-03,-5.941080120225900041e-03,-4.317446067433752875e-04,1.243081033059462506e-02,1.565000701053885154e-02,2.903452374747251402e-02,8.380848734109112028e-04,8.187979232323644441e-03,1.226930738735214355e-02,1.189871813106121307e-02,1.299382351933398537e-02,1.521007697720687044e-02,2.402550277055963066e-03,1.980460957470336555e-02,1.075436513729167293e-02,-2.689235968617813667e-04,-6.680143649854514316e-03,-7.011425768899028597e-03,2.919845159620948136e-02,1.055137479088568732e-02,1.369135453332843977e-03,-8.504178134292423794e-04,8.662894956605977567e-03,-2.555567491946438702e-02,-5.967780841091122751e-03,5.370747268776553465e-03,-1.602278666470019486e-02,-1.557020726926799242e-02,1.743582593353511928e-02,4.765003501615596576e-03,7.624686784701377104e-03,4.649176111962465864e-03,1.677110135847853858e-02,1.331455098022591051e-02,2.115104737299825302e-02,9.943931535494100055e-03,1.650453523889260435e-02,6.044364476749473220e-03,9.559341625910450918e-03,5.956558673558292293e-03,5.817127314595216042e-04,3.929292983526127755e-03,-3.893173635125330573e-02,-6.727758732865741532e-03,-1.313258019310983848e-02,1.249397597135658376e-03,2.040914460913959352e-02,6.675706638593156654e-03,7.003089429023450115e-03,-7.500884417473960113e-03,1.130390884412558507e-02,-5.153896073523206445e-02,-2.737645209627241616e-02,-1.852095659579317682e-02,-3.787986113018505102e-02,-2.557023957713358553e-02,-1.045579705034150979e-02,2.156096156542974904e-03,-4.585644613078710893e-03,1.567092805108912228e-03,1.211627653485181436e-02,-1.842948604323683070e-04,7.570762148791225846e-03,6.997769792249300923e-03,1.268714197200275333e-02,-1.850448904424447207e-03,1.789702470470935780e-02,9.986187106662424220e-03,2.454743064174263675e-03,-2.437050917341327186e-02,-8.614894711601811875e-03,-7.608426599620872650e-03,-6.057840961500976507e-02,-4.053494766187954595e-02,-2.311352847257645143e-02,-1.097760835470827862e-03,-1.259260986250416514e-03,-6.632448238883939529e-03,2.108103076561785097e-02,-1.249987630431427348e-02,-4.398073398867423378e-02,-7.023291450822313764e-02,-4.052429133661047261e-02,-2.791146991555530296e-02,-5.230100526463384025e-02,-5.019329301572329760e-02,-2.190942780150990574e-02,-2.634405915132537537e-02,-3.761239959494758894e-02,-1.858596744664245404e-02,-6.905409665680919615e-03,4.244839254955842280e-03,1.778041302430788395e-02,3.718788296074916101e-03,2.708661612378909789e-02,8.590722965676264936e-03,-1.124030175962814019e-03,6.299761791734337021e-03,1.181054622669269055e-02,2.478148144055133950e-02,7.501983799623915088e-04,-1.049263928229428322e-02,-3.376145113876707904e-02,2.747109134900891422e-03,9.427665764008131936e-04,2.341567899872060892e-04,-2.087489113670821985e-03,2.754142946844809897e-02,5.028891354526292268e-02,-2.778701392666469566e-02,-1.501740664282116139e-02,-1.475197928484564547e-02,-1.965231291786530277e-03,-2.902225577468033751e-02,-3.848444021626840766e-02,-2.377472503941132492e-02,-7.301854791612752762e-04,-2.245650375265290793e-02,-1.380844621530761054e-02,-2.071087859359144277e-03,3.806651425018842475e-03,6.338145500017103133e-03,8.689584384955649152e-03,-1.879279599061918146e-02,-2.022647360790545690e-02,-2.392770244464726206e-02,-3.668164680866806138e-02,-6.380548796970265599e-03,-9.666486503769384023e-03,3.798864521136098571e-04,7.686899038654987706e-03,7.878917229310819503e-03,5.795053194314780942e-03,-5.779001357437676435e-03,1.817889429952220361e-03,-4.331013403504710424e-03,-2.503551827967632950e-03,-1.325399880047370589e-02,7.035870929733756621e-03,-3.934293656406691320e-03,-2.429380319990843973e-02,-2.656756373665212362e-02,-2.129494528585100174e-02,7.245514345318845341e-03,4.367229578092143849e-03,-1.649869710676684850e-02,-1.284320898810918134e-02,1.677503695868646366e-02,-2.343850821911807897e-03,-5.759104657619245650e-03,1.985454933432996474e-03,-9.253983585595825434e-04,-1.140144612475574998e-02,-2.153011961061727583e-02,-3.763567154128857895e-02,-2.537811688790465869e-02,5.052868556487698226e-03,1.036149730057501096e-03,-7.170153644760422426e-03,3.134531529851481129e-03
1.499126008876452672e-03,-9.283207111120333338e-03,-1.075521577601978862e-02,6.815050268513617388e-04,3.416781272896345957e-03,3.042900250638481182e-03,-6.804898869522779496e-03,-1.735049745557927254e-03,3.332949595142942721e-03,-7.678761043959456828e-03,4.264149108957313071e-04,1.066646346988272404e-03,4.366902332385376798e-03,-1.333003701301865157e-02,-3.356407263568035940e-04,9.851224866044410236e-03,-3.106036693955373587e-03,-1.581196638161101427e-03,4.769961151091740327e-03,-3.815713005413383374e-03,5.784774422990125904e-03,2.702665806223059162e-03,-7.870367125668667821e-03,5.029670883986286922e-04,-7.294909794934890078e-03,4.762739092157474569e-03,-8.403372363856558697e-03,-9.058768573595691806e-03,-5.686522056370563009e-03,-4.015363330767388397e-03,6.574703937590130852e-03,-9.128767587023504492e-05,6.503622358720140099e-04,3.823159184390609137e-03,-3.489049500633651865e-03,-1.061327349339568488e-02,-2.300405079374375286e-02,-1.837531732091003331e-02,-1.245009016117128685e-02,-9.247018198405785802e-03,-1.301381451132447957e-02,-7.778985911983444905e-03,2.418174812763979314e-03,1.682716428245502327e-02,-2.194018493177958204e-02,-2.882850971677296953e-02,-3.775704176502040627e-02,-4.308513052277528760e-02,-4.656563670424263696e-02,-1.637507698269616979e-02,5.476643765332319877e-03,3.381458561456357481e-03,-1.117874437276101434e-03,-5.356899401933503876e-03,-4.658407810798182759e-03,-5.338511714471774056e-03,1.056168305800198005e-03,1.023827418571779044e-02,-6.350989844768383311e-04,7.588771066527256158e-03,1.959893323531375006e-02,-8.238220347841303595e-03,-3.469914868251111791e-03,-6.894560502543063685e-03,-2.161193971657667315e-02,-7.761905474137596739e-03,-3.014702707537284671e-02,-3.705073605638205259e-02,-3.865102176127895028e-02,-3.690566952479902574e-02,-2.505246154689573512e-02,-1.806724692589184791e-02,1.525884873681072722e-03,-1.020981223752597710e-04,-1.293703511459031591e-02,-5.616447227607610816e-03,-6.140523805323545858e-03,-1.855988515997181176e-02,-6.230630533431045885e-03,-2.710693826870339343e-02,-1.666403998767266442e-02,1.582354408455056679e-03,-5.516081731365430826e-03,-5.447755492315208004e-03,-6.947751192352580318e-03,4.171416026258787518e-03,1.176093804434303995e-02,2.942167359187483969e-02,3.135066156455592126e-03,-1.075079530895587873e-02,4.931507411465248930e-03,-6.798659201483439607e-03,-1.746746195600147947e-02,-1.373149974563952526e-02,-1.378979642811691692e-02,-7.621275729292536355e-03,9.726487050768676396e-03,-1.503893940233537799e-02,-4.484267383832091225e-03,1.396448219699503819e-03,1.074330395393607862e-02,9.375077188064134467e-03,1.857893181133340316e-03,-8.851166769996088313e-03,2.314340668437166963e-03,-1.073550004425513713e-03,2.292878454006350153e-02,-1.992480880521224542e-03,4.850843301316140090e-03,-1.780061929258725840e-03,-1.674994235532687933e-02,9.307825511387448486e-03,-4.299135119337527643e-03,-2.189541055077440582e-03,2.160377580693720323e-02,2.340874722764094140e-02,-2.272087584582966821e-02,2.345692605214517740e-03,-1.433240977948386369e-02,-1.827449873303106306e-02,-4.848015134658050992e-03,-1.829016559728128058e-02,-1.168212608999541144e-02,-5.147841133607736208e-03,1.314948071178048336e-02,-5.949098348423172145e-03,-2.028916102474077367e-03,-5.341548448520826164e-04,-1.526264719106502216e-02,-1.694068359699300364e-04,2.246825344566775323e-03,6.034699962199422708e-03,-4.540245222684542725e-03,9.778709136027472285e-03,-5.631385107913279911e-03,-1.979141962845213515e-02,1.469318909796349425e-03,-1.382753497720703474e-02,6.373980293130356804e-04,-1.623171568678666646e-02,-1.395722018960916279e-02,1.002780787943990601e-02,8.455072012019771571e-03,2.844890794772849188e-02,2.578260843311937830e-03,-2.683406655445790337e-02,-1.905585144295872738e-02,-1.884497714714534339e-02,-1.891044943816480584e-02,-1.512612613477566821e-02,-2.225172476816212122e-02,-1.606471399263190158e-02,-1.465130858360670467e-02,-1.842403796078271802e-02,1.051766809998900577e-02,6.503068012288272699e-03,4.273296307742647550e-03,1.063638424653745931e-02,-6.785280388690290328e-03,-5.350322356119164777e-03,-5.238313590018163317e-03,-7.383549183930721016e-03,-2.006987672974380656e-03,-7.615157053536492950e-03,-2.540058018592829085e-03,-5.171401153882856927e-03,-3.509342606800867296e-03,-6.151351469741429996e-03,-3.728220248351170329e-03,2.141954759545326541e-03,-9.441364784838441465e-03,1.983089174354762778e-03,7.371649553412527693e-03,-1.377152026831894235e-02,-2.288998638066691918e-02,-1.540710374131443530e-02,-2.222800831078948491e-02,-2.944809326649430042e-02,-2.245101618426488185e-02,-1.067905214158953661e-02,-7.187096523481041957e-03,-6.210520023226299979e-03,4.642537620065401334e-03,-9.825207895943890990e-03,4.851470511889553403e-03,-1.511936033878614289e-03,-2.011665515159010917e-02,-1.878295239773960720e-02,-7.013241986900928954e-03,-6.103285037400691011e-03,-7.093193848606661744e-03,-9.951018929904728583e-03,-8.428816061137255414e-03,-2.198642783272095058e-02,1.230032025157358662e-02,-1.221535392588752678e-03,-4.138419786365014723e-03,-1.963330589767068451e-02,-1.170200846413655023e-02,2.878069108725772336e-03,-1.266586422359148797e-02,-2.176045018496136282e-02,-3.093923818585603974e-02,-1.885928197580317642e-02,-2.664849814654689578e-02,-2.769989491795245631e-02,-2.703490342098359422e-02,-1.312419608271176569e-02,-1.335232151001390470e-02,-2.024060201042211793e-02,1.292928295273187891e-03,-4.490534539509104077e-03,-5.450173034973646372e-03,-1.324271792105636072e-02,-2.400118695380196870e-02,-2.169086865841427653e-02,-1.206635698884908278e-02,-1.403929118215040822e-02,-1.186327473832334348e-02,-3.833087940234162876e-03,-1.050793617327944879e-02,-1.883244164402444673e-02,1.056174317148318720e-02,3.528832715120716959e-03,1.175421677328642063e-02,-1.075210167779544305e-02,-1.585360819581764155e-02,2.180216696798648046e-02,5.047874849719743290e-03,-2.408219020358699086e-02,-3.207092477760224714e-02,-1.461081765819216387e-02,-1.970129914031730836e-02,-1.866659383583232218e-02,-2.356190673850933059e-02,-2.838296820910439153e-02,-2.540879476917233884e-02,-3.960634389994536868e-03,-3.095292131514560448e-03,8.279578843041916769e-03,7.106997157319036151e-04,1.718132996900304530e-03,4.000055262679457803e-03,3.705345502582588256e-04,6.570780679065527357e-04,4.926789941534089404e-03,5.107475137237613844e-03,-4.395404131651785284e-03,9.038395063232368409e-03,9.630245424195662055e-03,1.149242696026312079e-02,3.328756908799641173e-02,-3.920216695382685267e-03,-6.596724699632028517e-03,-2.055289515521429092e-02,-8.195033028599521194e-03,-1.935462521663447455e-02,-2.997976283626842264e-02,-2.619602483884167499e-02,-6.347175482517134794e-03,-6.509025136362853181e-03,-1.210281583979610186e-02,-7.737229523537439077e-03,-5.335890870653866962e-03,-2.011740700865428944e-02,-4.996072043163681670e-03,7.741108001535389888e-03,2.532083293656234302e-02,3.784180132911782457e-02,2.194545642158611878e-02,1.889741542232107815e-02,1.862084239957772711e-02,1.292790862857272176e-02,1.703029146184161999e-02,1.673140502382031505e-02,1.550699526431468904e-02,1.953644721564254047e-02,1.136860524688863144e-02,2.856452619978970715e-03,9.239651108950400552e-03,6.084586777203514988e-04,3.984339700963785216e-03,-1.096883581895369275e-02,3.152498013193003653e-03,-6.545182663361999095e-03,-1.238196708635627870e-02,-9.214880969147069834e-03,-9.897043023395765693e-03,4.324754927859842009e-03,-5.552320636431414859e-03,-1.867261481433529161e-03,-6.938265589210980237e-03,9.907409237199153815e-04,2.649179597686415321e-03,3.136883558078964324e-02,5.451687365420214426e-02,3.921853415526271869e-02,1.310070508843567440e-02,4.869894305663660661e-03,2.125654505191489768e-02,1.486754650725548993e-02,1.848706771648710168e-02,1.612104186502951592e-02,2.460246078776155698e-02,2.285965760070749614e-02,-6.495141713063742016e-03,1.494114343676327707e-02,-1.512324853816034501e-02,-9.000584316309404725e-03,2.346823826059809756e-02,-1.953421675566498900e-02,7.012385132496013612e-03,-1.907175130297152077e-03,-1.155952004695330951e-02,-5.472965311560355414e-03,-1.975673498136668732e-02,-1.108220018408010051e-02,-5.294903339232006310e-03,7.313855891263054427e-04,-3.139849648294869289e-03,-6.734977102098292992e-03,7.745576390145036613e-03,2.562715663829842616e-02,3.146865159036237730e-02,1.965229518416059667e-02,1.528352580873139528e-02,-9.053765115830462703e-04,1.364595524338412316e-02,8.302903323247564499e-03,9.694660722271425737e-03,2.878994869113573815e-02,3.150506778478365938e-02,3.219080185652983817e-02,1.676093072600708112e-02,8.090771346322297303e-03,-7.879955556687964074e-03,-2.947148356255536918e-03,1.498340560135709952e-02,-7.772716222652347774e-03,-5.545525167117638238e-03,-8.590742634665761088e-03,-1.377285903035140903e-02,-1.141399667295960214e-02,-1.174665251933031118e-02,-9.793673162967706305e-03,-7.225573948986600131e-03,-1.014898334516765692e-02,-5.106618326869121448e-03,2.288080301828304599e-03,1.611734536504967619e-02,2.094900687744382164e-02,2.288269642877145335e-02,1.526929210487213600e-03,1.411482430134612318e-03,-2.969926350223276281e-04,-1.544940423783403016e-02,-8.831189893321865839e-03,-7.658407005656725844e-03,4.349703792189570789e-03,-1.561054022726482762e-02,-6.148124742088557741e-03,4.604304146856366404e-04,1.248245817208130069e-02,-5.187845893604538412e-03,9.963888289675388449e-03,6.390569749869214923e-03,-9.253463801052141252e-03,1.798487375864852439e-02,-6.875880873020210823e-03,-1.249355085398689245e-02,-2.336833052616351519e-02,-7.462675567688586671e-04,9.884728231397228379e-03,-5.671669366068776696e-03,-5.096607897102934867e-03,1.154097278228752473e-02,3.088830751168731258e-03,3.547421276643571587e-03,4.073055351785307386e-03,1.640360797325527645e-03,1.316772801432778209e-02,-8.177588597477277246e-03,-3.894120967840006969e-03,-2.127825480897967483e-02,-2.368444652192438007e-02,-3.548766736814740197e-02,-5.006682799257355931e-02,-2.720571517838047890e-02,-1.263822938293480795e-02,-2.588332302400577281e-02,-1.057437447603127093e-02,-5.362626944377139535e-03,-1.865100961575281383e-03,7.239202398344533711e-03,-2.123469567331107144e-02,6.935750561513043602e-03,9.531840187065005008e-05,4.548709289883129392e-03,-1.140978504240292880e-02,-1.035598364394866092e-02,-1.835607773153919570e-02,-3.505242584066827014e-03,-1.989313712650414741e-03,8.777985488826814398e-03,1.171075536188971849e-03,2.818025741930402141e-03,4.306142914465697392e-03,-3.162518691588538187e-03,-7.394972236744048501e-03,-1.607735773644695942e-02,-1.000461962258345633e-02,-1.144471314119942761e-02,-1.612570302377650672e-02,-1.927660651741957415e-02,-1.718198476914691367e-02,4.164161753035394015e-03,1.680441330391515761e-02,-1.155966216451888295e-02,-1.752021869936111823e-02,-4.480474979691398234e-03,-6.291749586414917619e-03,-3.168960268483430546e-03,-4.411468529345660174e-03,-2.178030034741154902e-03,2.386402861675031295e-02,1.734908453734052003e-02,1.861722940097605000e-02,1.578287173012341916e-03,-1.597355334549828074e-02,-1.070534747125587334e-02,-4.558967868171157935e-03,-5.004428508093075427e-03,-5.596211884254658452e-03,-9.466124402001400290e-03,-1.353955164343159656e-02,-1.561764648659598638e-02,-1.129388361639617130e-02,-5.955072644942637113e-03,-6.182390901244059697e-03,-1.718986644185759374e-02,-6.593588015923596262e-04,-2.373727646668483127e-02,-2.303061542724700247e-02,3.390950892248446131e-04,1.500943713867495741e-02,-4.754786066153465079e-03,-2.297742921140949468e-02,-2.225764411740142890e-02,7.382069964223480357e-03,-1.220760657551949249e-02,-7.289929390629818103e-03,-1.465443023650716235e-02,1.150240391165569323e-02,3.218285021931145684e-02,7.410907206412510780e-03,3.767631685617901013e-03,-1.406960245720213429e-02,-1.924656072759858144e-02,-2.635304507792076562e-02,-3.518090908501404074e-02,-3.000609844553112082e-02,-7.208231851664379485e-03,-1.146299728409621611e-02,-1.410641683136363775e-02,-1.753025755494484316e-03,-1.173121803498670956e-02,-2.712179984751910983e-03,-1.173844723632538715e-02,1.445622129123289891e-03,-3.776702728788264383e-03,-2.619641355498692620e-02,-2.384810011401398283e-02,-1.496534977678287692e-02,-3.883329854268612047e-03,-1.580396207753850119e-02,-8.646747597575207833e-03,-6.935902599803945960e-03,1.644366431923867389e-02,-2.432445210449573486e-02,-4.771878170634611706e-03,9.633170746073801624e-03,2.866131291191793828e-02,1.670723608200428215e-02,2.096976685455216941e-02,7.047638844484178933e-03,-5.545681770073218955e-03,-7.110447921974539891e-03,-1.310493047393076343e-02,-2.957224009934322079e-03,2.268392594923528561e-03,-2.382279931129406818e-03,-5.574079841542168862e-04,-6.479607263749542247e-03,-2.013511811216215242e-03,-1.016761170681779874e-02,1.731452155385849881e-03,7.673559390542194006e-03,-1.692856738041049330e-02,-3.423544346109994724e-02,-3.448251893224960757e-02,-1.554284527030463242e-02,-5.961904045072313578e-03,-5.327863703801213879e-03,9.208856483246699240e-03,-3.080183381081994312e-03,1.965721230501788278e-02,-2.177788585890314682e-02,-1.420430138991950544e-02,5.065800676425887168e-03,1.809192602324300597e-02,3.334117034163018491e-03,3.010043914989558866e-02,2.553355896693188659e-02,3.845101350158547371e-02,3.110245925927409075e-02,2.032648284930933802e-02,3.183501856826716908e-02,2.428601417950060348e-02,1.160910753000746198e-02,4.492054228704338119e-03,1.528016513557631196e-03,-1.630010744665369438e-02,-4.016827169139878043e-03,5.407903646623253785e-04,-3.259352313095506201e-03,-3.720503488782867657e-02,-3.095492340326478145e-02,-3.441047886204871148e-02,-3.290663530670286802e-02,3.248133914447338868e-03,-1.004871271147178037e-02,1.341712847130019891e-02,1.168042255116826487e-02,-1.848078329710284295e-02,-1.020063732179403784e-02,-4.762119063551535658e-04,2.013227659136378970e-03,1.615436394110882773e-02,1.768528981323393839e-02,1.069551523606064244e-02,3.295303142499161897e-02,2.843190529472524458e-02,3.400592971586922225e-02,4.282619691315071864e-02,4.242131206023164181e-02,4.459333010073641274e-02,2.211052243124037725e-02,1.599072078912827655e-02,4.028105140378611870e-04,-3.325155621873981341e-03,-5.647867545888539224e-03,-1.063291110381375977e-02,-2.255066510996720300e-02,-4.424780586309486757e-02,-4.107077857918835923e-02,-3.646921114486927074e-02,-3.285330494220179472e-03,1.237321396207049368e-02,-2.996187524237495410e-03,1.986135887311210255e-02,-5.778958255496446754e-03,3.034306209114585743e-04,-1.157018361619054905e-03,-1.917976861726444077e-02,-2.247822716086916774e-03,9.746820613844641573e-03,2.429367766199105882e-02,5.339831004521732559e-03,1.918987885966216486e-02,1.872274739761178169e-02,2.695490334520297265e-02,2.960851280965515891e-02,3.023329879308421855e-02,2.332608793387663110e-02,2.416118443353386033e-02,2.449220325159808583e-03,-1.077117848877055632e-02,-1.509587303252365141e-02,9.891605851215585360e-03,-1.824948017981148710e-02,-4.346891018435741771e-02,-5.068824505709534217e-02,-4.693686090974671238e-02,-3.764498345881742147e-02,-6.218636466821535896e-03,8.154303559863573803e-03,1.203107986187751388e-02,1.402524246801052990e-02,1.399318563191969365e-02,-1.550644233978441464e-02,-2.340600809963000115e-02,-1.183118139544689189e-02,-2.130437305102748577e-02,9.639243306685698134e-03,8.696762398982517406e-03,5.967358422920969810e-03,-4.435292903731127660e-03,-6.740823123761834068e-04,1.108941646467911761e-02,1.996604387189786223e-03,1.390587120821809748e-02,5.907156839722827076e-03,-1.399685767567675340e-03,-2.904588016133017713e-03,-1.687153653464363787e-02,-8.503545070670337144e-03,-5.171978929607887014e-03,-3.036797083916948498e-02,-4.707317528637314230e-02,-5.467061049807195316e-02,-5.399483846744371207e-02,-1.216591079906562990e-02,8.074888091289788780e-03,3.023408442112104737e-03,1.508434167319144988e-02,5.414065357855570720e-03,1.248829147818759054e-02,5.804051827514631647e-03,-1.002913844560604680e-02,-1.004902423511862090e-02,-2.854370780788906964e-02,-1.487109512021998411e-02,2.098233827857676204e-03,-4.272691104490961359e-03,-6.565605144135303051e-03,5.895189451660174870e-03,-1.289703303624091350e-02,-1.314379386382501062e-02,-9.948488559372638609e-03,-1.407669504607581522e-02,-1.239644510912861833e-02,-6.433947926445945757e-03,-1.873209415041335313e-02,-1.796695093283128680e-02,-1.868854411996622930e-02,-3.026487215973182668e-02,-4.014598715643290239e-02,-3.487601247257222925e-02,-2.038122074031602227e-02,-8.082149813255017426e-03,6.235091336129729633e-04,3.989466010595516324e-03,2.894394898313755460e-02,4.712565715069696320e-03,-1.312338510341375195e-03,-3.112687268045126725e-03,5.200211288499158313e-03,-2.700024465702815027e-02,-7.123668271406418707e-03,2.735447248909907668e-03,1.314687090399930148e-04,-1.219527229012249553e-02,-7.569769418792607861e-03,2.132788223375359487e-03,-4.250860872695725115e-03,-1.678040461160992813e-02,-1.956894373653527558e-02,-2.916308656396400176e-02,-8.748211095825438391e-03,-1.603003793090380935e-02,-2.955502700932607224e-02,-1.671578365949835665e-02,-2.158895701382614399e-02,-1.505360690254951492e-02,-1.345029727726864723e-02,-1.416744223646172578e-02,4.002281750009454610e-03,-3.605019416812283578e-03,8.016372947646420444e-03,2.261887983701032709e-02,1.342674705502874127e-02,1.188674437941841452e-02,9.158632435702756527e-05,-6.169775499948326617e-04,1.829283897799746997e-02,1.578946172316621167e-03,-4.019601198678650344e-02,-1.114189434274646777e-02,-3.489478117828857806e-02,-2.544126918651151356e-02,-3.923325786647106905e-03,1.497582504188798040e-03,-9.278741504917536673e-03,-2.446590224025504273e-02,-2.013169365389433363e-02,-1.226194336991043993e-02,-5.824301977871641778e-03,6.455341755295265424e-03,-5.103770802437501523e-03,-9.379597761859105251e-03,7.848207802493213647e-03,1.140935530319272563e-02,4.767979178343425954e-04,-3.379595081188479112e-03,1.618469925708310164e-02,-8.276544067936233290e-03,-1.216656176133946825e-03,5.615541819146183111e-03,1.022512047493541291e-02,-7.632138496867816105e-03,-1.532070678052550351e-02,5.768515664313295446e-04,4.068953347192762540e-03,-1.340963313651297520e-02,-2.499446328076810817e-02,-1.064295142579076668e-02,-3.909682878996346284e-02,-5.320199380960848046e-02,-3.554740949118412319e-02,-1.958496834747803367e-02,-4.136870317663583069e-02,-2.979507617982218859e-02,-2.823893628342697554e-02,-2.230909650327162277e-02,-9.144259945694168876e-03,-9.538440817132674485e-03,-4.714730019144211699e-03,-5.734760980389908350e-03,-8.796812263914965610e-03,-1.410094434205640471e-02,-2.571518228649546586e-02,-6.936311271039651352e-03,-6.251704620267463548e-03,1.257744736254519683e-03,4.192443382832241293e-03,-7.857579798878104246e-03,2.148475880882549580e-03,8.796394622992166883e-04,3.194929768466047738e-03,5.100763222576759452e-03,8.963065358162533580e-03,-1.378512660073697924e-02,-1.547276148566911237e-02,-4.673317880688485429e-03,-2.333671171545987841e-02,-5.027399488454762505e-02,-3.328569847464854514e-02,-2.769046340170310330e-02,-3.695487043972195407e-02,-2.564110774823772157e-02,-3.987616292380037619e-02,-2.450847060036587255e-02,-9.362566874874501954e-03,-3.034569432654515495e-02,-3.340791092307494620e-03,1.134707062613486347e-02,-1.646938645595649384e-02,-1.474110343487786481e-02,-2.723569030550549840e-03,-2.383149909984054113e-02,-1.962431145763072690e-02,-7.548278531648243937e-03,5.676696140595175431e-03,3.405972719528183729e-03,-4.938103563520310386e-03,3.297094033678404229e-03,-1.215118658467769300e-03,-2.606582153870118553e-03,7.970686898167210141e-03,1.488995192304849030e-03,3.291615753602210055e-03,8.099775703825419851e-03,-1.239715743650462304e-02,-1.329994510958304108e-02,-2.688842882823585731e-02,-2.532590358094292948e-02,-7.201612578149575554e-03,1.793348981525350744e-02,7.944981740600251530e-03,-5.880117943007817692e-04,-3.525062458737450444e-02,-1.156959850428543324e-02,-1.899347058180392636e-02,-3.117568031929474071e-02,-1.978614659690608110e-02,-2.140661463539486609e-02,-6.502368914629896683e-03,2.505781954988012174e-03,-2.376276366823113634e-03,-1.533171903513016196e-03,-1.295804932907989584e-04,-9.770959078627251479e-03,9.311187275910688677e-04,-1.914971533238770386e-05
-2.260323485515918114e-04,1.714231552976413879e-03,-1.082463784703101110e-02,9.559147560206083388e-03,-1.516755573885339480e-03,-7.171068584945538248e-03,5.576493926990680472e-04,-6.355838615447010134e-03,3.319634992284517701e-04,2.703011160455192057e-03,-6.594484137166099942e-03,4.227132145619401718e-03,6.554609983748575742e-04,1.745418421073269884e-03,2.020340525738593095e-03,2.562170734028395690e-03,5.601808997875668168e-03,4.302272238892970724e-03,2.434551767368916316e-03,-3.821698131347986849e-03,1.431655512346033865e-03,-2.789169772029271004e-03,-7.243761368357858575e-03,-2.068843760551319195e-04,-4.564050483753803560e-03,5.675706928932694635e-03,-1.885459710021347409e-04,2.263128436035545228e-04,3.876030592965302220e-03,-2.090619609583987612e-03,-1.282974292052145365e-03,5.823355811494677556e-03,-6.918393007839591935e-03,-4.334776092160736762e-03,-6.684693611967231245e-04,3.923945955301592035e-03,1.248962369744493865e-03,-5.787584188622803272e-03,-4.598869852622373966e-03,8.472300098989688291e-03,2.383713169331672793e-03,-2.288809250037984397e-03,-1.618163084943716277e-03,1.870124451852294561e-02,6.701359551646527551e-03,-8.182370054726306394e-03,-2.293874877710270349e-03,3.614113417001261173e-03,-1.377405414823626786e-03,5.695266477502082189e-03,8.821247895192847743e-03,3.780197518657354836e-05,1.473697574309715611e-03,-8.433114337197875326e-04,4.413995330532635535e-03,7.499625817510432828e-03,4.671976869909249229e-03,-5.414888028559022848e-03,3.771815349120528904e-03,-2.893769666647783446e-03,8.741809830773579829e-03,2.381419078534919524e-03,5.290643671582030694e-03,-1.052969304191758162e-04,-1.616895612003890466e-04,3.601840758286495910e-03,1.269749317674575585e-03,9.236524289335726681e-03,-4.549713549638296183e-03,4.566461189752524415e-03,-1.812240867697728457e-03,5.282691507007684917e-03,-8.183497583551684051e-03,6.430631242260939628e-03,-1.546843891993221693e-03,-6.168365762407333752e-03,3.583421551297883909e-03,-9.588842169553237317e-04,1.385694157878878622e-03,6.139543490876415814e-03,-5.455952783770983035e-03,-3.681885674719932028e-03,4.020356519490370420e-04,2.837576992593929433e-03,-3.518074879282455381e-03,-3.965726575473260337e-03,3.856676461234371297e-03,4.918193211078595098e-03,6.986366292549825441e-03,-2.897353899425956104e-03,-1.433319306016053556e-02,1.194932351948548542e-03,2.377606671845290329e-03,-8.745234568431962258e-03,1.765622095007222253e-03,2.636683195069384165e-03,2.570207774768003793e-03,-1.254851618806938386e-03,1.533233364054806648e-03,3.904249820710124254e-03,-9.683207019163571003e-03,4.555412171670080931e-03,-1.829183269910093258e-03,3.822510595983835083e-03,-3.513101387155760820e-03,-8.558824325302263891e-03,5.905693642126626230e-03,8.205680928537588750e-03,-9.302653686088346863e-03,-6.461383106843699049e-03,4.708657892329135052e-04,-5.246801608133581409e-03,3.801258735117018540e-03,-3.985319494734137526e-03,-2.587902629654675185e-03,1.057174844958092778e-03,-1.169429295357922623e-02,-2.686805129861959303e-03,8.997536960966322564e-03,1.921364835593991193e-03,-6.070272491477753281e-03,4.068552810942771721e-03,9.323280630492048957e-03,5.303896661190348784e-03,-4.079900052356860186e-03,-4.387903356882607957e-03,-2.990708089463026305e-03,-6.393314888690613054e-03,-1.000125622458591761e-03,-6.186770755826136343e-03,-5.501364875884096062e-03,7.131490951207702543e-04,-1.624256855101073420e-03,1.271332802857004149e-04,1.182031535518372929e-02,2.962208992346370470e-03,7.101188920689124363e-03,2.189590660903963440e-03,3.014895087818521193e-03,-6.745876034818885231e-03,-2.734859565194583484e-03,-1.311269368022856653e-03,-2.233133252258840545e-03,-1.014542522918425145e-03,-3.747334765133268252e-06,-2.056005066444239939e-03,2.345295569110507263e-03,-2.281082909947828707e-03,4.407993258235593306e-03,-1.039347909056836895e-03,-3.844258844630554436e-03,-7.355899149875925851e-03,-5.083140549104538629e-03,-2.552316028128005787e-03,4.607019340269228984e-03,-7.826392725921015731e-03,3.677748543710107534e-03,-1.989289844251972139e-03,-5.686568800968305054e-03,-8.055414123767151366e-03,1.366193907690241684e-03,-1.070138771572971825e-02,-1.200752958579068361e-03,-6.069688193750060433e-04,5.121410439321370366e-04,2.905924721553604026e-03,-3.073204624584548530e-03,6.017121400391505382e-04,-6.089230253795888115e-03,2.884604628884704868e-04,1.646015197832143050e-03,-3.155082578532169245e-03,7.758198286909911198e-04,-3.828160716646673259e-04,-2.901469278937590743e-03,-1.437425626386369627e-03,-2.219002681734713687e-03,-1.113847758398953808e-02,-8.797743045022260455e-03,7.228593965501212571e-04,-1.193606990917536574e-02,4.284364887257451245e-03,-8.542774365970430550e-03,-1.303836183283353179e-03,9.206192460528081359e-04,-4.625241589206357737e-03,4.357378554440899734e-03,-8.345791625091697127e-03,2.983176578098400891e-03,-9.729857079208101842e-04,-2.603740903558721120e-03,6.788064943717808664e-03,4.026797753208257412e-03,-5.219113762770229842e-03,7.059053031893937173e-03,5.019982016613372226e-03,5.190384054433575846e-04,7.484376438635915833e-04,5.284560392103262831e-03,6.883094499030826402e-03,1.722423733724609118e-03,-7.336739857397942682e-03,-9.081635850598512860e-04,2.639127215271814056e-03,-5.675014269406765920e-03,-7.515365131836930675e-03,-1.508679878817117135e-03,-1.004759369257405286e-03,3.548376125310145619e-04,4.643899936750395946e-03,-1.241600344853493326e-02,-1.008822716716350695e-03,-2.515126377387021713e-03,-1.407886789227928356e-03,-6.551780327703339395e-04,3.626493065528419660e-03,1.229469344573416419e-03,-1.830967791144547194e-03,-1.315868027301495685e-03,1.091209744272773072e-03,8.238342071935149087e-04,8.014946868699360932e-03,-8.759243626929974838e-03,-7.007480940550563607e-03,7.988184814228567118e-03,2.868266721269820303e-03,9.679434603720034032e-04,3.850821272716632195e-03,-1.192876580308053353e-02,5.484054064558784893e-03,-7.437594581008072012e-03,-6.483109248826163587e-03,3.610384458506619727e-03,-7.380724046723331766e-03,1.048643639722630265e-03,5.578530379741058857e-03,-4.794118273008026766e-03,-4.496680087795067518e-03,1.781954008549908918e-03,2.891873963153911327e-03,1.625128497575502871e-04,-9.408550603116839356e-03,6.535207320118034853e-03,1.579939961115785956e-03,-1.335321718478085264e-02,-6.083305672174760953e-03,-6.942459478853347382e-03,-5.531804532698361525e-03,2.239390265282607470e-03,-2.157996063591169789e-03,6.925543423237205849e-03,5.543689628329639268e-03,3.712534105169363534e-04,-7.525846336402314089e-03,-2.230294390920226164e-03,4.943857585482178406e-05,3.966112607598479278e-03,-4.095297275090704903e-03,-1.329627111077561537e-03,-6.626443401536708487e-03,-3.936162202891863027e-03,4.195447832910720147e-03,6.358579343103137535e-03,-3.318439971769523208e-03,-2.929301602351185464e-03,-5.427279549584005172e-03,-9.262949778240948603e-03,2.347907463450537593e-04,7.664874660327466224e-04,1.478680606726548137e-03,-1.412554173051420742e-03,1.082296518937684226e-03,-7.302374532257906734e-04,4.667244648575324603e-03,3.660118723400130128e-04,5.556477602470817796e-03,6.496145254560405785e-03,3.228148271943842140e-03,-6.211502558334284010e-03,2.586361554849651596e-03,1.603809903277987874e-03,7.333317289643164275e-03,1.577945336581461789e-03,-7.637562345143329365e-03,-5.820788001977804556e-03,3.026569443488730769e-03,-2.686142812394304476e-03,-7.663661811089051389e-03,7.782257300998099382e-04,8.332776740302352695e-04,-2.207104997282195724e-03,2.662929079663446490e-03,-2.205045607323921717e-03,7.662185894172194797e-03,-7.126875630004276575e-03,2.935111872352166862e-03,3.372118856912635805e-03,4.773381475755168052e-03,-2.174143916056593771e-03,-3.634980291401912044e-03,7.162760997058363610e-03,1.224844752957674615e-03,-4.507145298964380757e-03,2.538135753354565753e-03,8.031860000783446266e-03,4.781068652291301999e-03,-3.629900276762276431e-03,4.897124929799739033e-03,-7.687674206077393241e-03,1.625379597907735405e-03,2.812322361056337084e-03,-2.955900470030084319e-03,-3.912962953178045688e-04,-1.001373169496997664e-03,-4.307885917591227840e-03,-5.891270279021984871e-03,-3.016689626339342286e-03,-4.699627854533486131e-03,5.970385813834123284e-03,-8.355363075163046993e-03,7.474190787862800521e-03,-2.631578452232903337e-03,-5.251675872582574692e-03,-4.130979222495263434e-03,-6.712754141958860929e-03,-1.168563387329542118e-02,2.523166754092277201e-03,-2.344014896010912768e-03,-5.724319077094529827e-03,-8.051220138490014153e-03,-4.406144945130183177e-03,-7.539670858899587789e-03,7.155926088250389588e-03,-8.031789818872127340e-03,-3.342939404160645122e-03,-2.966534526834767056e-03,2.375886963845806350e-03,1.268874037555012615e-03,-7.239655723829920486e-04,-2.412563032833138499e-03,2.862342479646721896e-04,-5.653156733688897290e-03,8.400433053927691858e-04,-8.157855597596760586e-03,1.152622285985466927e-03,-3.984763157868407256e-03,4.223260454777677704e-03,-7.503781404651773193e-03,-3.630955425649020317e-03,-5.460320256549032296e-03,3.318410154591641941e-03,-8.500269464638795722e-03,2.909449034226058769e-03,8.076519168982282913e-04,1.283113012953356492e-03,-4.987280227929250312e-03,8.077562264840262721e-04,7.181071226580304674e-03,-5.052199217163894779e-03,-4.679158747926400006e-05,-1.680972458234246750e-03,-4.053580131536178854e-03,-2.675425407538626482e-03,4.072873804624926874e-03,-2.269127834822126319e-04,-1.226459931400268946e-02,2.661440898607596479e-03,-3.053137933952831343e-03,2.902701990252318665e-03,-4.841220765299808146e-03,1.001478870065209553e-02,-6.267727444332857681e-03,2.292938665253176338e-03,-6.844294962969644028e-03,-4.414978210973796008e-04,-7.099021345699329903e-03,4.858216017148122602e-03,-1.559127996292486440e-03,6.006787694998941621e-03,-1.992692952562975014e-03,-9.632036368846639066e-03,-5.745408699020286558e-03,-3.510574402773187445e-03,5.362161213063227488e-03,1.206268111191362985e-02,-2.110940434624885079e-03,4.351214573868141027e-05,4.948283092954174241e-03,-6.107971764205238387e-03,-1.293043084674717067e-04,4.796673548733723820e-03,3.213526548843785059e-03,-4.216126634799428354e-04,-4.887003550113991693e-03,5.209498793630944289e-04,1.887283211136833510e-03,-5.028012232306570788e-03,-1.224461299297737241e-03,8.912339013275051222e-03,8.571280460414821200e-04,1.414661360693109712e-03,-6.709969037471404107e-03,-4.228586042987810684e-03,-3.094767372508189663e-03,-5.725975232873445689e-03,-7.578319749820538152e-03,-9.395328937157934254e-03,-2.610889143803827705e-03,2.609507853664619088e-03,1.546531982665198856e-03,1.810245714658604687e-03,2.968214921124327690e-03,-5.816215519717393700e-03,-4.844388697791027036e-03,-2.608658748488998456e-03,-5.716006762692850754e-03,1.572301539280371785e-03,-1.867068248928236253e-03,7.017623985871233351e-03,-4.389257712644249743e-03,2.812708917624516438e-03,8.393801997470159634e-03,-6.076127090655652867e-03,-4.441371402261867427e-03,-4.915173406977035517e-03,-6.642677177451706584e-03,-2.087973522700357736e-04,1.002248671540813046e-03,-5.189243487608608506e-03,-4.077505688520187410e-03,-3.603885941180237727e-04,-3.779555565454425397e-05,-7.173046794846064597e-03,9.868555256109334470e-03,-2.764031803358453238e-03,-1.124255580395361765e-03,-4.635454770950846355e-03,-2.827291895026345144e-03,-6.119858888110024479e-03,6.524483589385185814e-03,-1.068984032594392196e-02,-2.180030994721200710e-03,2.095020123539235220e-03,-7.847588564190466007e-03,3.213085993472960655e-03,8.030339035248376320e-03,1.481848358899631388e-03,3.756110623700238159e-08,-1.710540004630471819e-04,-1.407496602753422529e-03,2.900888223562985736e-03,-6.002432696770542558e-03,9.342950803116786384e-05,-2.955226734086233240e-03,-4.256514450397134823e-03,-7.155734514116629877e-03,1.973089952317791818e-03,-4.382255407794286885e-03,3.863806428964165415e-03,-1.697754716464923300e-03,-1.624098564827074469e-03,-7.059957713150298748e-03,-6.516450408037319231e-03,1.270313994176149519e-03,-1.955911093882350092e-03,-1.240974896977415894e-03,1.637702389157856759e-03,9.801214106968296567e-04,-3.270611664113870758e-03,1.318443973251549189e-02,1.470327548077997142e-02,1.842521526465247007e-03,-6.674324199045895793e-03,-4.468050706696992044e-03,2.908696444847758567e-03,-2.883034433104387454e-03,-4.085113420466598955e-04,-9.983727694590230350e-03,2.180907579504321424e-03,4.357472729123369574e-03,-7.364940829227552450e-03,-2.894654713367339569e-03,-3.043691008333785329e-03,-1.376720363574597886e-02,-3.741455165810785976e-03,-4.204060666450367897e-03,-8.297470583897709195e-03,-5.681557203877820282e-03,-2.821267118489378164e-04,2.299507986328484441e-04,1.857060848601263048e-04,-4.272848094694551777e-03,-5.596473131158831438e-03,-8.261464566792005738e-04,-3.589297102856500634e-03,3.566304094323667108e-03,4.299928128039779904e-03,-3.691729758167895149e-03,-9.508951242868358966e-03,-5.348049207688661526e-04,-4.996349474290027147e-03,4.111485351594484222e-03,3.500497588651826485e-03,-5.253046795890375237e-03,5.241152796807109666e-03,6.961386701294053174e-03,9.482171824507684742e-04,1.580282364699035855e-03,-3.889375963339876223e-03,-5.575944719402413721e-03,5.056723322005938354e-03,-3.665810113079832287e-05,-1.750179679276648746e-03,-1.666133422868368991e-03,2.467930994959789594e-03,-2.386414455914243754e-03,-4.043673117241188344e-03,-3.025791065571255354e-03,-2.286899868858000961e-03,-3.913688320285502349e-03,-1.044020895673480583e-03,-3.988565807694495827e-03,-3.884090813230938518e-03,8.321458996545065545e-03,-1.473702877088356282e-03,7.193072013879420190e-03,-6.405417624613283893e-03,2.650319268034423154e-03,-1.576181634865841171e-03,8.455050091591316541e-03,-2.325931735637797038e-03,8.961614946764250023e-03,-2.943230492491775898e-03,3.813724106431011951e-05,-6.584010129767873913e-03,-1.577975077831402688e-03,-2.387231835696417091e-03,-6.808754038221397596e-03,-1.036664213351547702e-02,3.525320435059182012e-03,1.553016234277339444e-03,-4.353681368849491619e-03,-1.600330068605293823e-03,-4.923663212827108365e-03,-2.104988487917873116e-03,-2.635373376040943058e-04,2.618773562809978005e-04,-4.003371646807565333e-03,-2.581798813637643537e-03,1.028574732656630441e-03,-4.902790704232507998e-03,-4.399021170905744772e-03,-1.042924505603727049e-03,1.080841049413178113e-03,-3.492612533550543998e-03,2.564302096324167900e-03,-1.786925916845469959e-03,-3.363712651520814768e-03,4.720770362310175352e-04,-7.283451470140328392e-03,-9.179495206454297423e-03,1.695125648052848381e-03,-9.685202624180235670e-03,-5.401683428331411144e-03,3.675325848479588792e-03,3.948875623156107031e-04,-5.469845427818672071e-03,-1.182079110295226670e-03,-8.228582612968661850e-03,-6.863499487496704798e-03,-2.164127006102907307e-03,1.553487875550137913e-03,-1.566879746313738862e-03,-1.845476927617309328e-03,-4.712588069834192442e-03,-1.131579024464807095e-03,2.429942052087899571e-03,3.930504115201247442e-03,7.990088488171022765e-05,-1.033732337636418487e-03,3.469186749694326013e-04,1.207461296598340240e-03,-3.734615617632630526e-03,-3.197629536012821811e-03,-4.754020646702920676e-03,-4.584366149339691963e-03,9.415147681614305375e-03,3.924688611476294040e-03,-3.423698528368054363e-03,2.115838962052249916e-04,7.338822811993142049e-04,-1.666728218335310902e-03,-6.074224328373082661e-03,5.790602363440162242e-03,-7.440907500844112787e-03,2.920360974047554736e-03,-1.045084773899003418e-03,-5.366768845054485648e-03,-2.169780881386362825e-03,-1.065594924742484413e-02,-8.081642643836481083e-05,2.186662618970371293e-03,-4.113964533041161893e-03,-2.539588682018737329e-05,-1.403323798766074881e-02,-4.289953116544370504e-03,-8.378200775849857160e-03,2.995509442226659737e-03,-5.073106079262413226e-04,-1.524507737988240429e-03,-2.057707414009671363e-03,-2.601732628240531475e-03,2.484279630627743429e-03,-6.649264740799879121e-03,4.661265636276736533e-03,3.497944474402929493e-03,5.153771655313244340e-03,-1.739683342137363477e-03,4.603876232388528361e-03,3.849551758713156639e-03,9.675806482210820656e-04,4.056678976087721260e-03,-3.742501487394124700e-03,-1.870080215095988423e-03,5.272845704143006886e-03,8.622574782975008650e-03,-9.697020226147616898e-03,3.215823764598142211e-03,-7.773627445798062495e-03,-4.128156146564881121e-04,-4.429441117450564139e-03,-5.113377771563122317e-04,-3.088974277336102841e-03,2.668785163286225594e-04,1.492959069680864677e-03,-3.389182371678439894e-03,1.742472968156991327e-03,-2.344563626151607155e-03,2.611421556678549232e-03,5.122911702188748077e-03,9.916473654816185897e-05,2.293118731807614746e-03,-9.013610252122657845e-03,-3.859452391319276223e-03,-3.113282892278232839e-03,-7.532980706918925625e-04,-7.800942725590062805e-03,-7.491905651023347303e-03,-1.589292155106147289e-03,-5.507932658218848455e-04,3.320857352088488548e-03,5.574917263451074738e-03,1.050956683178620038e-03,-3.391906756098996435e-03,1.917672501411574627e-03,-5.533118548825587471e-03,-4.413468521213843713e-04,7.454437576859749594e-03,5.849621858479689407e-03,-3.120082529593934829e-03,3.119903871848645188e-03,-3.737353577495401442e-03,-4.862639031156298225e-03,-9.778691961839659080e-03,1.033328118121768901e-03,6.406454419361062164e-04,4.121542719958407736e-03,3.266447373715728082e-03,-2.233734137679840425e-03,4.315508048818907268e-03,9.403653773120560291e-03,1.150641880939425217e-02,3.862279022828281512e-03,1.442379441326994624e-03,1.943320434711591060e-03,-7.401662393998317737e-04,-4.124176786785184977e-03,6.288567604948381434e-03,2.181255238830822740e-03,-9.168514438263921902e-04,5.783657678330115376e-03,2.537420911204631580e-03,-7.924223560501606270e-03,4.566466393964251774e-03,-3.608338221221649069e-03,-8.131825229198750768e-03,-1.632437054926365143e-04,-3.302338553245308221e-03,-5.497147708860587387e-03,6.173920237074267611e-03,-1.476504449323994038e-03,-1.967162223647459223e-03,-2.923922115123430126e-03,-3.396763439940252757e-03,9.438960182947470686e-04,-2.408863140158310542e-03,1.538834225120682547e-02,-5.271875179553599938e-03,5.862159105599938982e-04,-2.351366387829563302e-03,-3.512702706956186659e-03,-3.339692582347238148e-03,1.382752684547897701e-04,4.655973553327327416e-03,4.566263989052458949e-03,2.066536139809492870e-03,-3.890330490238146956e-03,7.899279679272362686e-03,7.181229762583732183e-03,7.112132581580596358e-03,-3.961176294801270481e-03,1.608803888542539254e-03,2.100677701701790436e-03,1.469003248374751080e-03,1.341236376629525735e-03,1.104565564447519384e-03,-3.252054173227965708e-03,4.267585392696760481e-03,5.083717593631196033e-03,1.466224174680392893e-03,-1.353686867510069201e-03,5.272955292165107822e-04,6.242286414935994086e-03,-6.374080546096497083e-04,3.497178333006438489e-03,-3.676252300141533667e-03,1.896080496804655431e-03,-6.373309102600127792e-03,-5.684569110347350608e-03,1.044240902274544240e-02,6.582340862011163947e-04,5.518574090151007368e-03,-1.338420688173745307e-02,-1.188492318344838532e-03,-2.717983401235704588e-03,-4.591886920208361651e-03,-1.025092242651258045e-03,-5.949327135978389053e-03,4.754551555528109714e-03,1.799222100463380514e-03,-7.186422907919634909e-03,9.564030483557544975e-04,9.737362793316122188e-06,6.331914498800403010e-03,3.439303737708111069e-03,-7.436883596247572184e-03,-5.632265600665530350e-03,3.106144618323875527e-03,-8.394916448001403866e-03,1.314547223202200106e-03,-3.391740334969715887e-03,2.544725364261614213e-03,2.691324096658820851e-03,1.872668285389006556e-03,-3.734086203279731331e-03,1.676893365744504662e-04,6.101112391383416676e-03,-9.229991629566900021e-04,2.233371811493535183e-03,8.243738975369270180e-03,9.547643457762893318e-03,7.773447373412499875e-03,-1.272287340610330723e-03,-1.472257739913985369e-03,-2.650450122827398801e-03,-4.226147531422869662e-03,-2.283555408376707931e-03,-8.489078370871988230e-03,1.387200027813824052e-03,-3.087565739012116707e-03,3.829222825239021397e-03,3.123557283541098916e-03,4.732614377908548643e-03,-6.130188340352005216e-03,-3.216679728388256460e-03,-3.651064113344396674e-03,-7.795475812368949514e-03,-3.351014845516357699e-03,-3.963703080784210762e-03,5.653025886816986922e-03,-1.369570869481893938e-02,2.551574890799913464e-03,-1.268096604161364840e-03,-2.288313338410461698e-03
-1.530182483687450058e-03,2.328787778788060214e-03,-4.898782527102062915e-04,1.189119810384275250e-02,9.842288236710577606e-04,-2.354216549386613146e-03,-2.648376844123306005e-03,-1.080878407083207381e-03,7.952783649567175817e-03,2.715568607233537993e-03,6.885187283278556940e-03,-6.321054869948277040e-03,1.966998465449154576e-02,9.687723659062398920e-03,-1.730727775763542600e-02,-9.412170816571675813e-03,5.257503586927661163e-03,-1.830616300510710471e-03,-1.436025125143633452e-02,-4.614095935840265006e-03,-6.002541519669003268e-03,2.912602783242981136e-03,1.021734989965580702e-02,1.715374093074116318e-03,9.098865431049154087e-03,1.690084558918370037e-03,5.614873781023105824e-03,1.620565311880322809e-03,3.776871671053165513e-03,-4.634962370213177238e-03,-1.550473887610644185e-03,7.540557858201265944e-03,3.643580251199274311e-02,2.846729008732817867e-02,6.988264813486017024e-02,8.760721522448956800e-02,5.752903266900959850e-02,8.252102682002222800e-02,4.898110509559174680e-02,5.070327849540366000e-02,5.702648681910362644e-02,7.110857817706954520e-02,2.084336147790456957e-03,2.048296705648595603e-02,4.338207435760164932e-02,6.305347200447683487e-02,8.052040443548987014e-02,8.137218325473342950e-02,7.228070522359313077e-02,5.471328381026546728e-02,4.690935750160358381e-02,4.710025005671478193e-02,-3.202512281240661642e-03,-6.192742573272873611e-04,-9.312622180560465018e-04,-8.767034565218764092e-03,-7.394348446606602851e-04,3.759604406936112569e-03,2.869066789122150241e-02,4.468427963122662688e-02,5.183981329106174263e-02,4.266935566885325659e-02,4.287179422700489878e-02,7.990944182630764503e-02,7.689064441891424462e-02,5.635995041637403141e-02,7.436058395423307543e-02,9.647119896653696958e-02,7.189229968849709940e-02,3.487871121961907961e-02,3.388754368167613829e-02,2.111054357819592761e-02,2.333590119449299380e-02,2.415003136817643267e-02,2.359601277300420880e-02,1.449032377732423563e-02,4.316447104159576442e-02,5.759920604595068772e-02,5.256092720004899854e-02,4.955914916662219200e-02,1.813389784288777992e-02,-2.935029259352362960e-03,4.695863359451632295e-03,-1.024996614253509408e-02,-4.082807325884417471e-03,-1.097446323518137812e-02,-1.621615489978313687e-02,3.348705178614783118e-02,-7.060510027785812590e-03,4.907605544440810791e-02,4.318947486595319657e-02,2.881976344202513696e-02,3.171977827024582974e-02,4.926224016556375596e-02,5.417978367496906200e-02,4.762557809939500786e-02,2.931507877840752035e-02,2.518333795343772469e-02,3.213379189001908109e-02,7.879048055955807303e-03,6.021775630704159950e-03,2.819778875820852689e-03,1.449576864939945177e-02,1.645745066092336312e-02,1.249622139299801787e-02,-4.607884308279322667e-03,-7.156867200972390555e-03,2.354493215619339608e-02,1.641487888772198700e-02,2.162833349689035831e-02,4.900808998868030376e-03,4.293019676899203704e-03,-7.069700710203073377e-03,2.561759533833330924e-02,-2.056127298862653330e-02,1.241766165381722083e-02,1.682585203589729780e-02,4.038543389309259130e-02,3.668712447118338549e-02,2.208323074058975849e-02,3.415668083757441437e-02,2.881916506466504838e-02,4.425116549108266267e-02,2.883776067044647312e-02,2.648160075241641140e-02,2.167848638862844221e-02,1.985661551167695188e-02,3.831830416769604983e-03,1.231437887898506958e-02,7.688537680049504185e-03,1.844200220991695045e-03,-2.894008472138545271e-03,5.397401707421247904e-03,-4.892237907053515432e-03,-1.246022265744820001e-02,-1.092139059508872440e-02,-2.452355069919198022e-02,-7.521790102967741308e-04,-7.695639032214324736e-03,3.827074409738818322e-02,4.079627539907164716e-03,1.011287887103581168e-02,2.527319393419127924e-02,-1.368711769788484849e-04,3.138719073496697154e-02,1.517497427761323354e-02,1.598642025840295994e-02,3.310731008603056552e-02,2.838846432448621782e-02,1.480831264144822842e-02,3.985540512517547762e-02,1.673158122548764476e-02,2.660805724260565872e-02,2.236944779417943466e-02,2.270336594844079431e-02,1.974373752808795610e-02,2.940403885350407337e-02,2.357201625216875929e-02,2.538525692505450362e-02,2.406279422777281296e-02,1.543597704868466397e-02,1.082684769961027652e-02,-1.002553883267146180e-02,-4.026929387342214998e-03,-1.102151339940784895e-02,-1.909178675197468231e-04,1.928988398193836468e-02,1.741433032671813388e-02,-2.912467828332541194e-03,1.527026486153149239e-02,4.178666923796951066e-02,3.381913894650109831e-02,1.020519046185038112e-03,5.740670202059107961e-03,1.113389863780204179e-02,1.793399017254614786e-02,1.881046176922502103e-02,1.634555121092067659e-02,1.330110466286275710e-02,6.694029407118317135e-03,5.460061806034269272e-03,1.672351124572809405e-02,2.714245576887446779e-03,1.601581271457062916e-02,1.035472057831516267e-02,7.671349715182532170e-03,8.901994125713912683e-04,-9.479292696065051357e-03,-1.401450901783020224e-02,5.031654627299078555e-04,9.051657466872651062e-03,-7.574346152623058319e-03,-9.679549503608855104e-03,1.086595058636775739e-02,-6.944378280391417732e-03,4.196409189552420538e-03,-4.361265896083981776e-03,7.279395626660084551e-02,6.047086481112369516e-02,8.837766229689472675e-03,3.756665864968238011e-02,2.553553598859028759e-02,1.331843899152564993e-02,2.761020919095401316e-02,1.409999529109403661e-02,7.616701877509955351e-03,5.050698566653177672e-03,-3.961723595321913621e-03,2.977831425999661122e-03,1.650791889358736372e-03,8.618265080979518183e-03,1.398190166966659098e-02,-2.968206461133491344e-03,-1.651272033434719906e-03,-9.292570483358785285e-03,-5.177872772059336631e-03,-7.633353220875111443e-03,-1.250249716876711964e-02,-1.318014147581367604e-02,-2.588505508002746786e-02,-1.850105173040526895e-03,-7.906672138967858060e-03,-1.129462269693216458e-03,-1.634804825058610851e-04,3.027291146645975581e-02,4.550056257500964541e-02,4.484811820515638425e-02,2.388011999140762093e-02,2.180553979582379454e-02,2.133934971870449920e-02,6.972966394297337549e-03,6.502064287886320793e-03,-4.631703578284625950e-03,1.053114996130442849e-02,1.060258659983043771e-02,-9.040769891089227295e-03,-6.702452213253924304e-03,-5.833077272312393868e-03,6.702997195485910047e-03,1.881763762672209947e-03,1.017625188757681487e-02,1.240814267150594681e-02,4.786685921729781634e-03,1.007400641055599972e-03,-4.489118478040014099e-03,-1.018693016826428994e-02,-6.775573708238194232e-04,-1.869519846801682289e-02,-5.687312497983022103e-02,-5.739739843970295685e-02,-4.658033575119558539e-03,1.766856958462689449e-03,-3.353189870178034573e-03,1.296710217358067185e-02,4.570709908754628376e-02,2.765866710694997802e-02,4.070053944111415994e-02,2.985344628844149167e-02,1.215024726923048110e-02,2.492812114572811114e-02,1.005747292439636287e-02,5.563713183835619115e-03,-7.893863971379472613e-03,-3.708210151561293355e-02,-3.056737793525340571e-02,-3.057642715788168666e-02,-1.115864168328209623e-02,9.315050330809140997e-04,1.967486795068185135e-02,1.133414983349303670e-02,5.596593379535437333e-03,2.070066060424998258e-02,1.773498522424725096e-02,3.517544884416055635e-03,-5.822001442427755281e-03,-3.092913174888304011e-03,-5.189556255838491394e-02,-4.759068322054234995e-02,-1.841804182064604722e-02,-2.685092747892288065e-02,8.782578773784979753e-03,2.852679826664580517e-02,3.557493009941088691e-02,4.987779022031926801e-02,2.805520496937844756e-03,1.773764208057461086e-02,2.396253878030235249e-02,7.782196793875072356e-03,-3.747253870291873592e-04,-7.383367323765934256e-03,-1.311901316108512842e-02,-4.172883693950325823e-02,-4.669396767302354256e-02,-4.061252677201471206e-02,-3.806489974561931555e-02,-3.558799561000933892e-02,4.031961784545596596e-03,2.377909429894185106e-02,2.589774422308623036e-02,2.217074740436832114e-02,2.040584250528088353e-02,-1.159924736274933581e-02,-1.690275893995098547e-02,5.328043525304223919e-03,-2.189906932326448480e-02,-8.323813349505768122e-02,-3.055714100867759284e-02,-3.017375132597694548e-02,-1.864664625143466065e-02,1.940556457118319811e-02,1.744444619338624686e-02,5.108568558070459426e-02,4.979075964120188540e-03,-2.717997570486630626e-02,-5.086528840388447083e-03,-1.703078915950905631e-02,-1.220457406527886840e-02,8.721068599835084603e-03,-2.349792742431937309e-02,-3.273211528443554369e-02,-2.368765103965975172e-02,-4.562279951866464456e-02,-4.446233954813161304e-02,-3.683225491235544297e-02,-1.033890259501565705e-02,6.401508479953136460e-03,8.031054551001306357e-03,1.841309141820996267e-02,1.644234801066720222e-02,1.777682855598503378e-02,1.600083723781354009e-02,4.668147702884702099e-02,3.174562354748282963e-03,-6.149739151366424850e-02,-5.813882260399280688e-02,-9.650135860767388579e-03,-3.168098993896267812e-02,-1.204004001419409914e-02,2.162293841644146591e-02,-1.101945475732001196e-02,-3.000587438175981309e-02,-3.507020062951309025e-02,-2.135371894720200503e-02,-1.111040280175854510e-02,-1.420642666771919360e-02,-1.705627394252523348e-03,5.684386883081606577e-03,9.646149645749626860e-04,4.235538127374994730e-03,-1.302472844025291329e-02,-1.430400478865716946e-02,-2.571503446787052824e-02,6.492210701109869808e-03,6.388938007135358532e-03,4.882939877428732305e-03,4.281233064513984173e-03,9.176275789220589285e-03,2.455521260107584869e-02,2.523630156937977514e-02,4.681181370472395353e-02,5.357590882316454195e-02,2.304271052786164772e-02,-1.823785186948491052e-02,2.148695881384999826e-02,-1.442437658344927071e-02,-1.808421780899794815e-02,2.565676737641765619e-03,-2.248291624396110688e-02,-6.479049832821326405e-02,-2.777927408094134354e-02,-9.336795754434489003e-03,-2.312428885062160072e-02,-1.434087044815087961e-02,3.682983983234425652e-03,-2.543038525372526368e-03,8.341457859558842544e-03,1.848552125418737729e-02,1.688910660505731770e-02,4.540186436134672522e-03,5.008116722023679517e-03,9.173272929292503736e-03,4.799209739839125320e-03,3.178295437678225512e-03,3.889696843249247984e-03,-1.520198176653039281e-02,1.438589620767868373e-02,1.115075589965891512e-02,4.933338736895020310e-02,4.779169357782341726e-02,2.905476684638728935e-02,3.300635867286413200e-02,3.465173382962020987e-02,-9.507654902693745205e-03,3.050146050377037024e-02,1.705945089717589985e-02,-2.133273149565173901e-02,-8.200629526073233144e-02,-2.599318951382057971e-02,-1.484734861494012986e-02,-5.073553449526373334e-04,8.274411836890057867e-03,1.268537872805936603e-03,7.694950258821608123e-03,2.616806714501879530e-02,2.642015365712045705e-02,1.756636443331772643e-02,1.510491957806241355e-02,8.804973699871564141e-03,1.344910538501845575e-02,2.882719130828965016e-03,4.143763517542944225e-03,-3.975242543265011461e-03,-1.156139699843801438e-02,1.269792549903697720e-02,1.629641035641602245e-02,2.015697756951706152e-02,1.574211975400384433e-02,2.553744023766835181e-02,2.980998114435984628e-02,1.153095190559145188e-02,-7.926970308747696009e-03,1.784347943113320789e-02,6.565283578480475557e-02,-1.696407975245582678e-03,-5.198798432707119749e-02,7.192590023145593522e-03,1.735263128419919226e-02,2.019518719296074794e-02,6.555349831930817883e-03,5.974600181121304636e-03,3.387678207039980082e-03,1.470672470769011572e-02,1.196098208566652964e-02,2.792945899298809528e-02,2.294405117540698064e-02,1.464470505506470718e-02,8.595556630064086698e-03,1.331961809051509724e-02,-1.540937934317152327e-02,5.993780425876232484e-03,1.525068169663673298e-02,1.040593739019246219e-02,1.170264511397306733e-03,8.391606656519810109e-03,1.774049277144166756e-02,6.117298686186012358e-02,4.891854108247035288e-02,2.540108662410215171e-02,6.780098854676189224e-03,1.150605736887793003e-02,5.277787603248176862e-02,-9.351788278847313063e-03,8.900059062544357809e-04,2.116626779891982169e-02,1.193722378282283982e-02,1.185922549976413734e-02,-2.555393989519080160e-04,2.343452107121389572e-02,2.481742510599198315e-02,2.316655564752633650e-02,1.626196371911809574e-02,2.816772926344624645e-02,4.912925201520502820e-03,1.262639034693661608e-02,1.850414632173259799e-02,8.283933257074356862e-03,1.125314039377438985e-02,2.847643064106432798e-03,-5.673878733993159909e-03,3.619706559172490416e-04,1.148261787568516726e-03,1.510761021278124797e-02,3.419704283657523658e-02,1.039351724907369989e-01,6.630179565534947972e-02,1.214724185420689058e-02,1.596241301311838794e-04,-4.255779787155784463e-03,3.986858138777736593e-02,-2.183048813818936479e-02,1.334371915881408036e-03,3.232266309950792595e-03,1.403798167822943761e-02,1.423035708658786959e-02,1.856166426801461253e-02,2.236955256078985294e-02,3.335733654861591790e-02,3.203052944692896808e-02,1.692934842784533586e-02,9.333484194934254033e-03,3.391894989826127211e-03,-6.313117874792371388e-03,8.342915734265732644e-03,1.582401255921843039e-02,-6.630839432063786358e-04,1.530139911061296348e-02,-2.686497564504045435e-03,1.180950853444631340e-02,1.821883106276488747e-03,4.462688163113107467e-03,-6.347294191264384391e-03,7.934373283628184947e-02,4.920151338357374449e-02,5.682061315104896398e-02,-2.665337632085427316e-02,3.243497459017788409e-02,-5.921637742752412087e-03,-1.277571439816965315e-03,-1.510769077622214126e-03,1.014661997700252657e-02,5.731973482862474413e-03,1.800220165313119389e-02,1.574184261287028819e-02,3.108074932997727247e-02,3.455840802293207170e-02,1.819276882223858777e-02,2.603183447576700935e-02,6.456325478892621476e-03,-3.348699546380598437e-03,1.152594893300209686e-02,2.771090971766851721e-02,2.179162807200554081e-02,1.949720838838444811e-02,1.796362445228971011e-02,-4.881588920766080641e-03,-1.085413329915253886e-03,1.158769507383181768e-02,1.890552402428153159e-02,1.902960677367437903e-02,6.966692352372211294e-02,1.024308460034361115e-02,1.646780532165096483e-02,-1.271924488172253460e-02,-5.864042973728956706e-03,-2.450154740255181332e-02,5.023455159454894188e-03,-9.472011617704780354e-03,1.259647679504422371e-02,1.461813367711751631e-03,1.692256979803293676e-02,1.864550467533525324e-02,3.471914359614314272e-02,3.152133632374305022e-02,3.800212832789084949e-02,2.885645379567036012e-02,2.279839984562333569e-02,1.579880622277182387e-02,1.877850719239868363e-02,1.997625170477613718e-02,2.555618568713060451e-02,1.578593357362934740e-02,8.717607604803490756e-03,-5.276322538456850245e-03,-2.409860612524951547e-03,2.041575961653649407e-02,2.419153997274186771e-02,3.589243384711121240e-03,2.647765056258120225e-02,2.720481727556342891e-02,-4.348944375772268583e-02,6.801883975774330147e-03,1.212863543009651572e-03,-1.953874625924351474e-02,2.110125911403906707e-02,1.185973765269028590e-02,4.739824399072664791e-03,9.159183641198474085e-03,2.552373897308193168e-02,4.988920032353327469e-03,2.510609207764814138e-02,2.147536858732150208e-02,9.488914546791722346e-03,6.857272636209479390e-03,4.463604912709536778e-03,2.166701601065685462e-02,2.165107978176768547e-02,8.662159884410306279e-03,8.734151975369058851e-03,5.599778341584760177e-03,-8.452845540361528590e-03,9.239707922394129608e-03,1.380930715546270157e-02,2.136790826406060467e-02,2.060270334611732576e-02,1.004403943698811870e-02,1.610848774051302709e-02,2.837419008406283014e-02,-2.199990563113038769e-02,-2.825479899546141579e-02,-5.431079000650806699e-05,4.340725515223456399e-02,1.358697876729352515e-02,-1.009338105034507035e-02,-1.911637701875595202e-02,-9.167740946223627840e-03,-4.685399534719919198e-03,2.567882643282286444e-03,-4.520672570287858488e-03,2.246370543067225875e-03,1.318518303203482754e-02,2.177589890006965262e-02,2.162552034887599631e-02,1.548460537281283293e-02,1.509414837916667543e-02,1.342426040892545809e-02,2.449782252719997361e-02,2.133540716333617165e-02,2.205744664231129235e-02,-1.014487108283279419e-02,-1.608544440032805625e-02,1.764538424411814591e-02,2.591331177533974517e-02,-1.442611991204202811e-02,2.161623318394594387e-02,6.600689323658549823e-02,-1.286079277835735710e-02,-2.709548326465414589e-02,1.155465096056994441e-02,5.347754637084374540e-02,6.864473006666451521e-03,2.336083155874637499e-03,4.493921087488680910e-03,8.816364135310011604e-03,6.441651245819258673e-03,1.054190087839933926e-02,1.169899479775319412e-02,1.133027836204442487e-02,1.360750338568866499e-02,1.788930624373431810e-02,1.705883101190772480e-02,7.374396365880834386e-03,1.461796229658343313e-02,1.150749204272881292e-02,9.449817344314586504e-03,1.368595491880490733e-02,1.805855816065789557e-02,2.986938861700329587e-02,1.800425499760320222e-02,2.379032577706478857e-02,1.470120382425128477e-02,-3.299356992270344874e-02,-1.815353816132136977e-02,4.978743330717978061e-03,-1.437101134726205369e-02,-3.866102540947663566e-03,3.752612393419569280e-03,6.352827191925770889e-02,3.034493518082903574e-02,1.280127170479515748e-02,-8.086890887248428597e-03,-1.930561280172904967e-03,2.365707424019020122e-02,5.835217415371859485e-03,8.883742075937631211e-03,5.051895967024775183e-03,1.662185970559847820e-02,5.003411142130073479e-03,2.415138427096689272e-02,1.200133912385267787e-02,2.116526493739221554e-02,4.335073909143195674e-03,1.650227350663303894e-02,3.746792598896503401e-02,3.503320332097926981e-02,2.443241157034756889e-02,2.095881534467391658e-02,2.697548465155654232e-02,4.764618226011834226e-03,-3.158627413144603907e-02,1.038319613642754019e-02,-2.666425990854803113e-02,-5.732876276876127525e-03,2.839652982865262503e-03,2.119356760465025344e-03,1.390749056847006247e-02,1.745210476893727103e-02,1.904388326440205684e-02,-1.335697901477494315e-02,-1.268698466075072334e-02,-4.591010358995703360e-03,-5.365710696324130398e-03,2.088435180778269121e-03,2.076952600206571908e-03,1.362854379247013716e-03,1.111911904546799765e-02,1.171849227779832130e-02,1.342879915754014407e-02,4.320758213926729693e-03,1.318700370075477288e-02,1.221992169870546492e-02,1.596790526662425144e-02,-1.245399228374841939e-03,3.493443390973533002e-04,-3.464989124728042914e-03,1.233698949306531213e-02,-9.138102245013008523e-03,3.154754602400158120e-02,5.576064409507158759e-02,1.803508139859261866e-02,-6.927695573789833562e-03,-1.442103080512666764e-03,-1.646799828284022972e-03,1.132771387731542657e-02,-3.567149282034412505e-02,-2.742623909899892867e-02,-1.225177646443618464e-02,2.383505821872370159e-02,8.277385830439739495e-03,6.956771842309743270e-03,-2.354713484257134337e-02,-1.803534726904935633e-03,-1.313682083800751972e-02,1.080671002723884629e-04,-2.255667909037648369e-02,-2.064821177563151353e-03,-1.155811736869930863e-02,-7.548678703997863115e-03,4.232322553411037649e-03,-3.696589801897022867e-03,9.736126092945183996e-03,-1.723993452297530038e-02,-4.171521843533353147e-02,-7.675258078042748733e-02,-7.172065975574956620e-02,-4.129655690335882340e-02,8.946962924276175705e-03,2.697076040526839857e-02,-4.668054097566102481e-04,7.796727995940752436e-03,7.152948496668621280e-03,8.552648759683012178e-03,-3.023310307443420955e-02,-1.100900961457267936e-02,-1.640776659607633831e-02,-3.587205487829110695e-02,-5.809874874357306637e-03,-5.004903405073597711e-03,-7.180850562401369305e-03,-1.620830504229229521e-03,-6.246725129427979466e-03,-1.029503734075849081e-02,1.521995196259530057e-03,-4.191280567676211946e-03,-2.395994719981814000e-02,-7.478713815314300128e-03,6.083298474611937429e-03,-7.180770626469210223e-03,5.711803150861512191e-03,-2.185652962718277748e-02,-3.777932612297840026e-02,-3.043530263970456104e-02,-1.198306832137980074e-02,-2.250814964751802170e-03,1.569774191875263764e-02,4.921758615776762082e-03,5.327953102807848895e-03,3.508272160852024622e-03,1.600505914435031716e-03,1.444392030394770756e-03,4.412988812725989439e-03,1.277940679781675720e-02,8.124365457507290444e-03,-3.781613693796247091e-03,-6.937031386506549609e-03,8.463551021197305776e-03,-1.610430010741489143e-02,-6.648961783257262281e-02,-2.640895611830581732e-02,-3.775796135439645623e-02,-7.017811453986722015e-02,-7.499075637220653512e-02,-5.091317404562762522e-02,-3.878351235194794216e-02,-4.467168539929301796e-02,-2.356483944919272877e-02,-4.662779552125300569e-02,-2.483567988381497546e-02,-2.154376716726360760e-02,-3.004230633428800826e-02,4.397558914319869144e-03,3.287097068656759640e-03,-2.911086321567436970e-03,2.394005344209794396e-04,2.562339105745499012e-03
